~o
<STREAMINFO> 1 39
<VECSIZE> 39<NULLD><PLP_D_A_Z_0><DIAGC>
~h "f"
<BEGINHMM>
<NUMSTATES> 5
<STATE> 2
<NUMMIXES> 16
<MIXTURE> 1 7.168592e-02
<MEAN> 39
 4.040448e-01 8.283203e-02 2.998241e-01 -4.528044e-01 -6.184703e-01 -1.830694e-01 5.936901e-01 -4.722047e-01 3.748530e-01 4.478721e-01 -3.607582e-01 1.825205e-01 5.809970e-01 1.237760e-02 1.149770e-01 5.024954e-02 1.417765e-01 2.301363e-02 -4.362753e-03 -3.359723e-02 5.394395e-03 -2.732459e-02 2.724842e-02 5.217652e-03 -3.018237e-02 -1.636817e-01 -5.658565e-02 2.446033e-02 -1.512661e-02 5.656568e-02 4.483874e-02 3.666472e-02 -4.994200e-02 5.090823e-02 -3.116135e-02 -3.752093e-02 2.997362e-02 -2.241918e-02 -4.927224e-02
<VARIANCE> 39
 7.677897e-02 1.973193e-01 1.732979e-01 2.539033e-01 2.371485e-01 2.512170e-01 2.827178e-01 1.947123e-01 2.883420e-01 2.455454e-01 1.518803e-01 1.241529e-01 1.957989e-01 8.231858e-03 1.568942e-02 1.195978e-02 2.155251e-02 1.673860e-02 2.010697e-02 1.908443e-02 1.843090e-02 2.000452e-02 1.544654e-02 1.238818e-02 1.127048e-02 1.681638e-02 2.689805e-03 2.421423e-03 2.617252e-03 3.650224e-03 3.433064e-03 3.689741e-03 3.697878e-03 3.567676e-03 4.032163e-03 3.184482e-03 2.541521e-03 2.026492e-03 2.322781e-03
<GCONST> -7.933403e+01
<MIXTURE> 2 4.400790e-02
<MEAN> 39
 2.734005e-01 3.839669e-01 3.337127e-01 7.215672e-01 2.587407e-01 4.214380e-02 1.213961e-01 9.426777e-03 -3.138045e-01 -6.753461e-02 -1.505608e-01 -2.249893e-01 -4.215024e-01 4.714973e-03 7.128755e-02 6.651059e-02 9.261128e-04 2.484644e-03 1.396829e-02 -1.634425e-02 -4.502877e-03 -2.819985e-03 -1.373537e-02 -8.196247e-03 -4.926927e-03 -3.950943e-02 -5.102159e-02 -5.073715e-02 -5.581115e-02 -7.859690e-02 -3.941801e-02 -1.479135e-02 -2.913622e-03 4.414464e-03 3.783630e-02 1.597368e-02 2.103541e-02 3.027494e-02 6.493494e-02
<VARIANCE> 39
 1.813538e-01 2.675336e-01 2.272949e-01 2.100594e-01 2.638749e-01 2.559860e-01 2.888497e-01 2.458769e-01 2.183354e-01 1.937486e-01 1.393060e-01 1.062454e-01 3.405834e-01 7.984178e-02 2.464683e-02 3.061697e-02 3.193519e-02 2.925131e-02 3.413447e-02 3.326070e-02 3.147143e-02 2.969859e-02 2.530845e-02 1.860602e-02 1.371295e-02 6.109562e-02 2.930134e-03 3.010486e-03 3.134586e-03 3.731195e-03 3.703855e-03 4.218312e-03 4.786972e-03 4.264162e-03 4.054755e-03 3.460084e-03 2.632247e-03 2.034611e-03 4.494931e-03
<GCONST> -6.695515e+01
<MIXTURE> 3 7.449050e-02
<MEAN> 39
 -4.612967e-01 1.165077e-01 3.039825e-01 4.236354e-01 7.468541e-01 4.430186e-01 -6.647246e-02 -1.934045e-01 -3.310493e-02 6.124654e-02 -7.945783e-02 -6.358072e-02 4.427564e-01 -4.330979e-03 -7.865669e-03 1.194883e-03 1.473227e-02 -1.232807e-03 -6.566430e-03 -2.719030e-03 -3.714913e-03 -7.526506e-03 -1.940197e-03 -6.076626e-03 -4.657703e-04 1.408508e-02 3.668599e-02 -1.403488e-02 -2.092373e-02 -4.149748e-02 -5.886136e-02 -2.994328e-02 6.952675e-03 1.034689e-02 3.424436e-03 9.175935e-04 6.183454e-03 8.410296e-03 5.421228e-03
<VARIANCE> 39
 1.547310e-01 4.774486e-01 2.200568e-01 4.017409e-01 4.121465e-01 3.238935e-01 2.895891e-01 2.631578e-01 2.563019e-01 2.354214e-01 1.915588e-01 1.318620e-01 3.882289e-01 2.222131e-02 1.661917e-02 1.425656e-02 2.108406e-02 2.421199e-02 1.988020e-02 1.818774e-02 1.843888e-02 1.757680e-02 1.703960e-02 1.354043e-02 9.708324e-03 8.370887e-03 2.068328e-03 2.788823e-03 2.535046e-03 3.232805e-03 3.943879e-03 3.784161e-03 3.908432e-03 3.909329e-03 3.701422e-03 3.451342e-03 2.930614e-03 1.889225e-03 1.674737e-03
<GCONST> -7.460152e+01
<MIXTURE> 4 6.801618e-02
<MEAN> 39
 1.484648e-01 3.664095e-01 3.493739e-01 -3.437160e-01 -2.867303e-01 9.373064e-02 8.989756e-02 -3.817812e-01 3.875532e-01 1.102794e-01 -3.191018e-01 1.903899e-01 3.509091e-01 1.938358e-01 -4.936868e-02 1.694675e-02 -2.299046e-01 -1.430075e-01 -2.624770e-02 6.734692e-02 -4.052077e-02 6.417899e-02 5.223972e-02 -3.395177e-02 2.800208e-02 2.639616e-01 -4.917591e-02 -2.371036e-02 -3.410110e-02 2.016522e-02 2.162160e-02 3.970257e-03 -4.127707e-03 4.292089e-02 -2.960671e-02 -6.689726e-03 3.145221e-02 -1.645684e-02 -2.517253e-02
<VARIANCE> 39
 1.263771e-01 2.045328e-01 1.502057e-01 2.526561e-01 2.316755e-01 1.700285e-01 2.242446e-01 1.665549e-01 1.700869e-01 2.143361e-01 1.316087e-01 1.087672e-01 2.355696e-01 3.251566e-02 2.933655e-02 2.364467e-02 3.390308e-02 2.796475e-02 2.748400e-02 3.693202e-02 2.954831e-02 2.988967e-02 2.677239e-02 1.975266e-02 1.465442e-02 2.642124e-02 3.826273e-03 2.884566e-03 2.539971e-03 4.310367e-03 3.807454e-03 3.367824e-03 3.755700e-03 3.442771e-03 3.301187e-03 3.422704e-03 2.605163e-03 2.078376e-03 3.915092e-03
<GCONST> -7.217915e+01
<MIXTURE> 5 8.896864e-02
<MEAN> 39
 4.759958e-01 1.877006e-01 1.113567e-01 2.362736e-01 -2.336155e-01 -4.059187e-01 1.095213e-01 3.378108e-01 -2.447910e-01 1.356164e-01 2.857409e-01 -1.343680e-01 1.699627e-01 -1.380690e-01 1.448098e-01 3.478803e-02 1.235018e-01 7.515109e-02 8.781898e-02 -2.638951e-02 -7.058009e-02 3.453198e-02 -3.390469e-02 -1.571354e-02 2.939625e-02 -1.765232e-01 -7.435981e-02 -1.561035e-02 -2.493983e-02 -1.312939e-02 1.179314e-02 4.037609e-02 9.242741e-03 -2.366192e-02 1.957414e-02 -6.541976e-03 -2.920028e-02 9.233073e-03 1.497282e-02
<VARIANCE> 39
 1.021107e-01 2.396727e-01 2.282898e-01 2.662182e-01 2.878223e-01 3.065755e-01 3.021620e-01 2.502152e-01 2.464308e-01 2.180338e-01 1.623909e-01 1.191250e-01 2.405002e-01 2.351160e-02 1.767704e-02 2.583872e-02 2.022097e-02 2.394970e-02 2.996210e-02 2.786974e-02 2.578392e-02 2.246787e-02 2.149697e-02 1.657186e-02 1.178574e-02 1.570779e-02 2.417260e-03 2.389589e-03 2.639020e-03 3.399539e-03 3.446528e-03 3.780255e-03 4.157625e-03 3.589770e-03 3.718443e-03 3.202375e-03 2.445862e-03 1.939420e-03 1.947642e-03
<GCONST> -7.417039e+01
<MIXTURE> 6 5.841181e-02
<MEAN> 39
 -2.864570e-01 4.314022e-01 2.918024e-01 5.507032e-01 2.080432e-01 1.370976e-01 -9.201791e-02 -1.066792e-02 4.503009e-02 -7.218055e-02 -1.211143e-02 -9.175258e-03 -5.063453e-01 7.114769e-02 -1.060767e-01 -5.248376e-02 -1.891430e-01 -1.148228e-01 -3.823342e-02 7.844016e-02 -4.309841e-02 5.214647e-02 5.205049e-02 -3.146368e-02 2.309597e-02 2.499271e-01 4.663842e-02 -4.433066e-02 -2.894804e-02 -8.871850e-02 -5.861941e-02 -1.874778e-02 4.163480e-02 -1.277085e-03 5.043330e-03 2.351470e-02 -1.228940e-02 4.204691e-03 8.980312e-02
<VARIANCE> 39
 1.809155e-01 1.986482e-01 1.408928e-01 1.530850e-01 1.760158e-01 1.663976e-01 1.670891e-01 1.646699e-01 1.794008e-01 1.559763e-01 1.221934e-01 6.930596e-02 2.911901e-01 4.189914e-02 1.901081e-02 1.849989e-02 2.703385e-02 2.588540e-02 2.550864e-02 2.641170e-02 2.606447e-02 2.636050e-02 2.525758e-02 1.681218e-02 1.176848e-02 3.198079e-02 3.453172e-03 3.544032e-03 3.129801e-03 3.864473e-03 3.941912e-03 4.580336e-03 4.535460e-03 4.852785e-03 4.636053e-03 4.216382e-03 3.138979e-03 2.106596e-03 3.441459e-03
<GCONST> -7.353598e+01
<MIXTURE> 7 3.950936e-02
<MEAN> 39
 -2.630282e-01 4.813184e-01 4.514162e-01 -3.872453e-01 2.404485e-01 -4.752695e-02 1.288954e-02 2.104782e-01 -1.893402e-01 3.322350e-01 1.252149e-01 -2.055503e-01 4.119068e-01 -1.195298e-01 9.509333e-02 -3.781292e-02 4.319963e-02 7.391717e-02 -1.654734e-02 1.085171e-02 1.873822e-03 -1.838373e-02 1.261616e-02 -5.428527e-03 4.409154e-04 -2.524354e-02 2.276225e-03 -3.917695e-02 -5.284658e-02 5.578441e-02 -6.079727e-02 9.974194e-03 -2.460793e-03 -2.458225e-02 3.843233e-02 -3.955838e-02 -8.766540e-03 2.629932e-02 -1.377856e-02
<VARIANCE> 39
 2.733525e-01 3.459635e-01 3.031555e-01 3.591385e-01 3.917726e-01 3.438737e-01 2.883377e-01 2.447956e-01 2.204870e-01 1.791669e-01 1.826024e-01 1.226638e-01 2.912057e-01 9.618577e-02 6.129894e-02 4.402274e-02 4.154436e-02 7.278378e-02 4.671515e-02 3.972223e-02 3.198143e-02 2.900167e-02 2.675650e-02 2.263139e-02 1.486916e-02 2.348215e-02 5.199635e-03 4.875860e-03 5.662676e-03 5.373999e-03 7.206654e-03 6.364228e-03 5.418185e-03 4.891417e-03 4.277204e-03 3.730580e-03 3.534628e-03 2.283944e-03 2.740896e-03
<GCONST> -5.870065e+01
<MIXTURE> 8 6.222330e-02
<MEAN> 39
 -2.356080e-01 8.980099e-01 4.548076e-02 4.882315e-01 -3.534980e-01 2.902451e-03 -1.143633e-03 -1.742751e-02 8.203927e-02 2.421542e-01 1.084349e-01 -7.635526e-02 -9.603521e-02 -2.620240e-01 5.257168e-02 -9.728743e-02 1.561085e-01 8.777688e-02 1.088758e-01 -1.172725e-02 -1.404701e-03 3.136298e-02 -7.923015e-02 2.856634e-03 1.777452e-02 -1.090535e-01 2.552319e-03 -7.203959e-02 3.016676e-03 -6.323770e-02 1.245739e-02 -1.373095e-02 3.782291e-03 5.784397e-04 -8.928500e-03 -4.588855e-03 -1.604731e-02 8.833102e-03 3.824453e-02
<VARIANCE> 39
 1.265044e-01 2.031544e-01 1.927088e-01 2.002436e-01 2.112990e-01 2.059692e-01 2.131280e-01 2.171245e-01 2.169247e-01 1.793240e-01 1.639161e-01 8.023623e-02 2.335671e-01 1.897874e-02 2.198865e-02 2.031196e-02 2.263215e-02 2.423745e-02 2.682821e-02 2.915004e-02 2.742247e-02 2.561733e-02 2.063421e-02 1.810414e-02 1.101915e-02 1.164110e-02 2.197153e-03 2.451804e-03 2.560620e-03 2.959601e-03 3.186136e-03 3.686918e-03 3.792700e-03 3.586450e-03 3.477732e-03 2.953599e-03 2.730291e-03 1.588826e-03 1.960859e-03
<GCONST> -7.748093e+01
<MIXTURE> 9 6.297771e-02
<MEAN> 39
 3.639198e-01 9.322314e-02 3.424834e-01 -1.786047e-01 -7.898020e-01 -3.725651e-01 2.082040e-01 2.663560e-01 -4.739734e-01 7.787706e-01 1.143072e-01 -3.428608e-01 5.998904e-01 -3.068225e-03 7.538258e-02 9.144014e-03 1.061547e-01 4.768223e-02 -1.146525e-02 -1.626190e-02 -5.145013e-03 -1.387167e-02 -2.756444e-02 4.462972e-02 -2.109139e-03 -1.256685e-01 -5.635785e-02 2.673000e-02 -2.749346e-02 3.074828e-02 5.973325e-02 4.375770e-02 -6.696883e-03 -3.040608e-02 4.909482e-02 -6.648853e-02 -1.057754e-02 3.136124e-02 -4.614570e-02
<VARIANCE> 39
 8.569380e-02 1.609185e-01 1.587640e-01 1.897908e-01 1.655788e-01 3.059313e-01 2.395013e-01 2.131098e-01 1.728027e-01 1.852856e-01 2.013204e-01 1.036125e-01 3.014278e-01 1.039241e-02 1.541525e-02 1.321789e-02 2.020904e-02 1.822939e-02 2.055994e-02 1.562681e-02 1.724790e-02 1.865979e-02 1.982966e-02 1.320932e-02 9.533387e-03 1.937786e-02 3.189003e-03 2.542737e-03 2.763671e-03 3.652075e-03 3.638155e-03 4.275336e-03 3.691468e-03 2.923008e-03 3.291203e-03 3.096844e-03 2.723302e-03 1.862623e-03 3.501733e-03
<GCONST> -7.955181e+01
<MIXTURE> 10 8.888157e-02
<MEAN> 39
 2.695052e-01 5.883046e-01 5.138422e-01 -1.658798e-01 -3.031458e-01 1.052388e-01 6.845085e-02 -2.916128e-01 2.716833e-01 3.500825e-01 -2.500269e-01 3.779038e-02 1.263569e-01 -1.794939e-01 9.733289e-02 -3.926420e-02 2.477156e-01 9.637998e-02 7.416750e-02 -2.630924e-02 6.221212e-02 -3.450209e-02 -4.422138e-02 2.990690e-02 -3.150353e-02 -2.000189e-01 -7.552068e-02 -4.814710e-02 -5.728606e-02 -4.881620e-03 1.223963e-02 -2.807209e-04 -6.367540e-03 3.289385e-02 -1.321115e-02 -3.461066e-02 2.429335e-02 2.246810e-03 1.754159e-02
<VARIANCE> 39
 1.004290e-01 1.918599e-01 1.448911e-01 2.686391e-01 2.708577e-01 2.299609e-01 3.039207e-01 2.213257e-01 2.522982e-01 2.461627e-01 1.556768e-01 1.400760e-01 2.258744e-01 1.722971e-02 2.503483e-02 2.066832e-02 2.392520e-02 2.664815e-02 2.819990e-02 3.226279e-02 2.776634e-02 2.668150e-02 2.224725e-02 1.805570e-02 1.289589e-02 1.510969e-02 1.978306e-03 2.595980e-03 2.543121e-03 4.191440e-03 4.203726e-03 4.050718e-03 4.145434e-03 3.618420e-03 4.114014e-03 3.480225e-03 2.803387e-03 2.384403e-03 2.035107e-03
<GCONST> -7.362774e+01
<MIXTURE> 11 5.314027e-02
<MEAN> 39
 -4.368275e-01 3.905458e-01 5.655385e-01 1.490951e-01 3.287657e-01 4.735565e-01 -1.815510e-01 -1.193290e-02 2.105577e-01 -2.441763e-01 -3.311963e-02 1.383148e-01 4.636040e-03 -1.897326e-01 -3.423409e-02 -5.187156e-02 7.302725e-02 2.110139e-02 5.605038e-02 1.436543e-02 -1.571390e-02 1.898120e-03 -2.029001e-02 1.753677e-03 2.393682e-02 -4.466148e-02 3.013435e-02 -2.262420e-02 -6.247613e-02 -2.758656e-02 -3.879631e-02 -6.784243e-02 1.424381e-02 4.629023e-03 -2.243432e-02 3.917633e-02 5.747429e-03 -1.770624e-02 1.700947e-02
<VARIANCE> 39
 1.892365e-01 3.116637e-01 2.669187e-01 3.704612e-01 2.929428e-01 3.032637e-01 3.456390e-01 3.335149e-01 2.420894e-01 1.956414e-01 1.856465e-01 9.716898e-02 2.213636e-01 4.895258e-02 3.326286e-02 2.814894e-02 3.754517e-02 4.112912e-02 3.653019e-02 3.354029e-02 3.089334e-02 2.496229e-02 2.289104e-02 1.889146e-02 1.255307e-02 1.668369e-02 3.863911e-03 4.008743e-03 4.153487e-03 5.232103e-03 5.419652e-03 5.222766e-03 6.308924e-03 5.960106e-03 4.589671e-03 3.884322e-03 3.513400e-03 1.990163e-03 2.275749e-03
<GCONST> -6.453867e+01
<MIXTURE> 12 7.183779e-02
<MEAN> 39
 -2.576339e-01 1.150637e-01 -9.607945e-02 1.804808e-01 -1.168123e-02 -1.022756e-01 -7.743733e-02 4.609932e-02 -4.080314e-02 -3.591089e-02 6.017464e-02 7.925935e-02 -8.333577e-01 -8.256586e-02 -5.680319e-02 -6.486213e-02 -3.619686e-02 -1.104539e-02 3.484289e-03 9.736520e-03 5.414824e-04 1.718509e-02 3.630603e-03 8.336566e-03 4.251022e-03 1.041930e-01 1.252866e-02 3.474751e-03 1.536818e-02 -1.091916e-02 -7.926787e-04 1.524190e-02 1.382943e-02 -4.114741e-03 4.531722e-03 7.826232e-03 -9.750281e-03 -1.241353e-02 8.601163e-02
<VARIANCE> 39
 1.230906e-01 1.518822e-01 1.370938e-01 1.438138e-01 1.717966e-01 1.558001e-01 1.739063e-01 1.788478e-01 1.553070e-01 1.333637e-01 1.133601e-01 6.624146e-02 2.962569e-01 5.009240e-02 2.505339e-02 2.735051e-02 2.690940e-02 2.716788e-02 2.651795e-02 2.817361e-02 2.889350e-02 2.581009e-02 2.269671e-02 1.861757e-02 1.219608e-02 5.389416e-02 3.248961e-03 3.013847e-03 2.921303e-03 3.202733e-03 3.525416e-03 3.507547e-03 3.984557e-03 4.209314e-03 3.639917e-03 3.405184e-03 2.826945e-03 1.723978e-03 4.815401e-03
<GCONST> -7.457820e+01
<MIXTURE> 13 5.579509e-02
<MEAN> 39
 3.147145e-01 4.397123e-02 1.080794e-01 -1.795716e-01 -6.516540e-01 -3.060459e-01 6.385725e-01 -1.090232e-01 -2.001603e-01 6.907001e-01 -2.783946e-01 -7.088099e-02 6.383473e-01 1.284062e-01 -1.111673e-01 -3.263948e-02 -1.605120e-01 -1.470452e-01 -5.563002e-02 1.339492e-01 3.851170e-02 -3.025375e-02 9.226727e-02 -3.354068e-02 -1.812547e-02 2.533644e-01 -6.449820e-02 6.480206e-04 -1.299389e-02 3.014955e-02 5.662943e-02 4.777239e-02 -5.171190e-02 1.012925e-02 2.140788e-02 -6.540045e-02 2.256726e-02 6.812010e-03 -5.783519e-02
<VARIANCE> 39
 7.856639e-02 1.543183e-01 1.478205e-01 1.874873e-01 1.584293e-01 2.140074e-01 2.374320e-01 1.665893e-01 1.575314e-01 1.435460e-01 1.053883e-01 8.336811e-02 2.493303e-01 2.719106e-02 2.264770e-02 2.122146e-02 2.717925e-02 2.498578e-02 3.477862e-02 2.867527e-02 2.543450e-02 2.772296e-02 2.289133e-02 1.909312e-02 1.263720e-02 2.324054e-02 3.659952e-03 2.807506e-03 2.698237e-03 3.680271e-03 3.722652e-03 3.850563e-03 4.097698e-03 3.165610e-03 3.139497e-03 3.157634e-03 2.328863e-03 1.631664e-03 3.918185e-03
<GCONST> -7.637985e+01
<MIXTURE> 14 5.372143e-02
<MEAN> 39
 -3.339454e-01 5.167907e-01 2.314750e-01 5.595475e-01 1.701421e-01 4.676639e-01 1.765006e-01 6.325127e-02 6.724053e-02 7.013188e-02 -1.126684e-01 -1.021762e-01 -1.968705e-01 -2.974983e-01 -5.182315e-02 -1.322398e-01 7.469501e-02 2.509817e-02 3.566744e-02 -6.010162e-02 5.165948e-02 1.252780e-03 -5.887731e-02 4.230464e-02 2.062881e-02 -1.261784e-01 1.446761e-02 -5.488289e-02 -3.126221e-02 -8.262489e-02 -4.824596e-02 -6.091053e-02 -1.119473e-02 -1.661075e-02 4.782250e-03 6.203798e-03 6.119153e-03 1.784841e-02 4.648539e-02
<VARIANCE> 39
 1.002150e-01 2.147871e-01 1.598310e-01 1.876702e-01 1.963931e-01 1.727355e-01 1.996825e-01 2.115708e-01 2.116769e-01 1.850005e-01 1.506334e-01 8.042815e-02 1.731576e-01 1.104996e-02 2.133505e-02 1.752576e-02 2.558460e-02 2.596902e-02 2.528370e-02 2.772975e-02 2.753107e-02 2.553120e-02 2.250099e-02 1.769589e-02 1.138566e-02 1.087376e-02 1.902017e-03 2.452836e-03 2.592531e-03 3.015682e-03 3.155631e-03 3.502139e-03 3.912143e-03 4.069552e-03 3.784641e-03 3.457442e-03 2.908805e-03 1.638328e-03 1.417561e-03
<GCONST> -7.923701e+01
<MIXTURE> 15 5.971376e-02
<MEAN> 39
 2.858394e-01 5.053375e-01 4.252370e-01 5.041958e-01 -3.912757e-02 -9.710161e-02 5.100678e-02 8.646540e-02 -2.340052e-01 -7.985476e-02 -4.884358e-02 -8.359055e-02 -6.702203e-01 -9.281269e-02 -9.741801e-03 -2.371932e-02 1.406533e-02 4.450817e-02 3.359979e-02 -1.961885e-02 -1.483608e-03 1.825190e-02 -2.498149e-02 6.335276e-03 1.110991e-02 -3.086107e-02 -2.277108e-02 -6.209869e-02 -4.369814e-02 -7.967787e-02 -3.001595e-02 -2.241272e-03 1.653567e-02 -8.203375e-03 3.397229e-02 3.196016e-02 -5.596718e-04 9.281357e-03 1.163001e-01
<VARIANCE> 39
 1.846022e-01 1.730442e-01 1.584630e-01 1.739634e-01 2.188734e-01 2.512830e-01 2.459957e-01 2.389698e-01 2.260736e-01 2.203207e-01 1.701590e-01 1.119018e-01 3.085319e-01 1.822245e-02 1.341144e-02 1.282923e-02 1.597612e-02 1.608270e-02 1.718272e-02 1.812951e-02 1.894541e-02 1.863760e-02 1.713914e-02 1.318026e-02 8.960334e-03 2.464346e-02 3.696968e-03 3.020737e-03 3.263787e-03 4.300831e-03 4.122679e-03 5.090592e-03 4.976042e-03 4.955421e-03 4.790240e-03 4.428455e-03 3.646525e-03 2.622480e-03 4.014449e-03
<GCONST> -7.479922e+01
<MIXTURE> 16 4.668646e-02
<MEAN> 39
 1.990483e-01 2.218281e-01 3.955125e-02 2.713776e-01 -4.405518e-01 -3.327738e-01 1.146589e-01 4.001579e-01 -4.097163e-01 1.641612e-01 4.051295e-01 -2.727519e-01 2.953185e-01 2.342970e-01 -8.929022e-02 2.281292e-02 -8.993977e-02 -1.103706e-01 -1.269625e-01 -1.320363e-02 1.276479e-01 -1.703537e-02 -2.516229e-03 6.151574e-02 -3.270975e-02 1.497085e-01 -5.200741e-02 -1.130261e-02 -1.855638e-02 -1.406164e-02 3.621568e-02 3.265755e-02 -4.970293e-03 -3.489228e-02 4.374333e-02 -1.203069e-02 -4.313185e-02 2.694438e-02 -2.000547e-02
<VARIANCE> 39
 2.188584e-01 2.248991e-01 2.241161e-01 1.720718e-01 2.172172e-01 2.639478e-01 2.192634e-01 2.365752e-01 1.626622e-01 1.821617e-01 1.333425e-01 9.788035e-02 3.278427e-01 3.926361e-02 2.719553e-02 3.063569e-02 2.771658e-02 3.560748e-02 3.612638e-02 3.335670e-02 3.144842e-02 2.738541e-02 3.020793e-02 2.045367e-02 1.449677e-02 3.068877e-02 5.236462e-03 3.331200e-03 3.707710e-03 3.572445e-03 4.524664e-03 4.703789e-03 4.691929e-03 4.270555e-03 3.700517e-03 3.495896e-03 2.587853e-03 2.016006e-03 4.344241e-03
<GCONST> -6.813631e+01
<STATE> 3
<NUMMIXES> 16
<MIXTURE> 1 4.138642e-02
<MEAN> 39
 -9.655063e-01 1.725015e-01 -8.428112e-02 -4.427926e-02 2.178131e-01 2.308355e-01 -3.892396e-02 -1.957558e-01 3.412543e-01 -5.979966e-02 -2.299340e-01 2.671903e-01 -1.108193e-01 2.921292e-01 1.065280e-01 1.579693e-01 -1.175906e-01 -5.095441e-02 -4.501260e-02 1.281214e-02 -4.620916e-02 -1.775765e-02 4.550609e-02 -5.952467e-02 -1.102118e-02 1.356771e-01 8.451487e-02 1.988013e-02 1.591096e-02 -2.782538e-02 -4.787090e-02 -3.183542e-02 -3.246930e-03 2.543511e-02 -2.747820e-02 2.381925e-02 2.365684e-02 -2.599910e-02 5.106991e-02
<VARIANCE> 39
 1.590278e-01 3.083615e-01 1.877177e-01 1.942354e-01 2.233255e-01 2.321610e-01 2.211777e-01 2.074046e-01 1.997066e-01 2.113441e-01 1.766917e-01 8.949594e-02 1.597758e-01 2.034930e-02 1.876944e-02 1.577401e-02 2.824895e-02 2.501917e-02 2.439891e-02 3.172538e-02 2.425722e-02 2.072808e-02 2.111696e-02 1.717623e-02 1.030533e-02 1.801988e-02 2.694145e-03 3.322662e-03 3.182224e-03 3.786345e-03 3.981900e-03 4.268671e-03 4.970128e-03 4.204243e-03 4.324981e-03 3.930579e-03 3.373972e-03 2.049723e-03 2.097249e-03
<GCONST> -7.412350e+01
<MIXTURE> 2 5.262704e-02
<MEAN> 39
 -1.074322e+00 6.138222e-02 -3.396692e-01 2.198799e-01 -2.522724e-02 2.543591e-01 -5.534104e-02 -1.311256e-01 1.751052e-01 1.418224e-01 -7.103978e-02 7.236326e-02 -7.021920e-02 8.736279e-03 2.758402e-02 4.074731e-02 6.710929e-02 4.777551e-02 5.645582e-02 5.061035e-02 1.823483e-02 -1.828923e-02 1.091290e-02 -2.378649e-02 -4.112178e-02 -1.188696e-02 5.606572e-02 2.574254e-02 3.761549e-02 1.134734e-02 2.172089e-03 -1.603524e-02 9.329729e-03 1.487653e-02 -1.942504e-02 -9.152770e-03 8.601718e-03 -7.714578e-03 -1.187043e-02
<VARIANCE> 39
 1.133192e-01 2.012599e-01 1.812993e-01 1.641972e-01 1.977903e-01 1.876647e-01 1.669467e-01 1.661449e-01 1.752982e-01 1.426053e-01 1.422900e-01 4.753521e-02 1.914777e-01 7.929858e-03 1.032893e-02 1.128706e-02 1.270035e-02 1.487163e-02 1.451883e-02 1.637440e-02 1.663501e-02 1.593664e-02 1.493243e-02 1.250454e-02 5.704256e-03 7.176671e-03 1.944121e-03 1.718697e-03 1.921745e-03 2.054632e-03 2.787086e-03 2.936012e-03 2.979741e-03 2.743361e-03 2.865134e-03 2.442749e-03 2.415718e-03 8.288589e-04 1.651166e-03
<GCONST> -9.044855e+01
<MIXTURE> 3 6.839556e-02
<MEAN> 39
 -8.411048e-01 -2.343272e-01 -3.365961e-01 3.642005e-02 -9.714493e-02 4.053510e-02 -6.302817e-02 2.710724e-01 2.300849e-01 2.925138e-02 1.449500e-01 8.957506e-03 -2.137386e-01 -4.300846e-02 -2.888890e-02 -1.432778e-02 -1.583165e-02 1.040402e-02 2.459424e-02 1.353949e-02 -3.125583e-02 2.357553e-02 -2.211270e-03 -1.709492e-02 1.269846e-02 6.792402e-02 7.518122e-02 5.533341e-02 5.292118e-02 2.352615e-02 1.408265e-02 5.544055e-03 1.192977e-02 -3.929934e-02 -2.666506e-02 -4.301489e-03 -2.560510e-02 5.144795e-04 2.330973e-03
<VARIANCE> 39
 9.417637e-02 1.421613e-01 1.412681e-01 1.435225e-01 1.416018e-01 1.517287e-01 1.597859e-01 1.496460e-01 1.529099e-01 1.217779e-01 1.087157e-01 5.416676e-02 1.930428e-01 2.424406e-02 1.499734e-02 1.600939e-02 1.873823e-02 1.906471e-02 1.759438e-02 1.951218e-02 2.108406e-02 1.940538e-02 1.744531e-02 1.403738e-02 8.323682e-03 2.164599e-02 3.068592e-03 2.674784e-03 2.958366e-03 3.312950e-03 3.248673e-03 3.413477e-03 3.810551e-03 3.470606e-03 3.530433e-03 2.952989e-03 2.485553e-03 1.366994e-03 4.391506e-03
<GCONST> -8.295528e+01
<MIXTURE> 4 4.709578e-02
<MEAN> 39
 -1.303340e+00 1.287884e-01 -4.552986e-02 -1.282279e-01 1.120296e-01 1.416470e-02 2.259627e-01 1.292625e-01 -8.362575e-02 1.582391e-01 2.244834e-01 -8.041045e-02 1.413774e-01 1.015983e-01 -5.043835e-02 9.430350e-02 -9.744210e-03 1.710757e-04 -8.390020e-03 -3.761131e-03 3.887394e-02 -1.827809e-02 -2.346291e-02 1.735933e-02 -1.129516e-02 -1.908623e-02 1.122723e-01 2.246095e-02 1.388593e-02 3.585919e-02 -1.795388e-02 -3.243909e-03 -3.449593e-02 -1.673903e-02 1.309626e-02 -1.956980e-02 -2.282608e-02 9.345725e-03 -1.975410e-02
<VARIANCE> 39
 1.502622e-01 2.824400e-01 3.405889e-01 3.068089e-01 4.576980e-01 3.091771e-01 3.325055e-01 2.778207e-01 2.256333e-01 2.291064e-01 1.855087e-01 9.576695e-02 1.668871e-01 4.130602e-02 2.567872e-02 2.957308e-02 2.581761e-02 2.972893e-02 2.690685e-02 2.617614e-02 2.386894e-02 2.086519e-02 2.082584e-02 1.804499e-02 9.871647e-03 1.721553e-02 3.312025e-03 3.802049e-03 5.283475e-03 4.405756e-03 8.154589e-03 5.655496e-03 6.195087e-03 4.973262e-03 4.450836e-03 4.407000e-03 3.684989e-03 1.810483e-03 3.519522e-03
<GCONST> -6.656207e+01
<MIXTURE> 5 9.482434e-02
<MEAN> 39
 -8.500662e-01 4.111756e-01 3.459133e-03 6.269611e-01 2.007695e-01 2.415738e-01 -4.126824e-02 4.391776e-02 -1.720177e-02 -1.510477e-01 -3.280329e-02 2.044769e-02 -4.139913e-01 -9.645822e-03 4.201666e-03 2.090859e-02 2.666560e-02 2.625024e-02 1.094539e-02 3.080083e-03 -4.937602e-03 -8.554228e-03 -7.081990e-03 -6.763179e-03 -3.258638e-03 -1.767072e-02 1.641963e-02 -1.434377e-02 -8.918086e-03 -3.178909e-02 -2.130330e-02 -1.181020e-02 1.391603e-03 -4.038118e-03 1.218495e-02 2.162617e-02 5.504665e-03 7.041579e-04 9.410901e-03
<VARIANCE> 39
 1.868489e-01 2.217446e-01 2.043129e-01 1.726495e-01 1.591640e-01 1.665918e-01 1.682730e-01 1.678969e-01 1.592457e-01 1.259445e-01 1.123272e-01 4.765315e-02 2.159391e-01 4.666287e-03 6.372219e-03 7.208089e-03 9.439307e-03 1.072855e-02 1.181782e-02 1.339736e-02 1.322695e-02 1.261710e-02 1.191373e-02 1.038188e-02 4.521578e-03 3.733593e-03 1.260021e-03 1.263772e-03 1.532620e-03 1.914440e-03 2.160122e-03 2.498669e-03 2.746897e-03 2.781218e-03 2.598276e-03 2.268380e-03 2.049954e-03 8.328556e-04 8.523206e-04
<GCONST> -9.710022e+01
<MIXTURE> 6 7.150142e-02
<MEAN> 39
 -8.585171e-01 9.350118e-02 -4.378705e-02 4.313438e-01 1.665615e-01 1.884173e-01 -1.477531e-01 -4.546504e-02 -1.589085e-02 -1.950264e-01 -1.926676e-03 1.450123e-01 -4.053738e-01 -8.688330e-02 -7.648774e-02 -5.687950e-02 -4.098836e-02 -3.537945e-03 9.635001e-03 1.020884e-02 -1.015858e-02 3.001518e-02 9.129796e-03 -5.184447e-03 1.821053e-02 4.199652e-02 7.160745e-02 1.346901e-02 1.314832e-02 -3.455482e-02 -3.042205e-02 -1.840689e-02 2.266218e-02 4.049010e-03 1.200163e-02 3.483066e-02 -5.638129e-03 -1.738594e-02 2.866935e-02
<VARIANCE> 39
 7.827505e-02 1.316780e-01 1.302397e-01 1.268584e-01 1.235652e-01 1.471311e-01 1.666677e-01 1.695123e-01 1.518839e-01 1.207434e-01 1.180221e-01 4.954740e-02 1.252096e-01 1.375747e-02 1.023677e-02 1.083535e-02 1.389642e-02 1.494012e-02 1.556386e-02 1.681502e-02 1.725652e-02 1.711732e-02 1.618491e-02 1.352647e-02 6.698668e-03 1.068037e-02 2.116746e-03 2.164198e-03 2.234285e-03 2.770731e-03 2.788247e-03 3.108259e-03 3.533620e-03 3.537904e-03 3.376531e-03 2.769961e-03 2.572096e-03 1.214074e-03 1.891030e-03
<GCONST> -8.977220e+01
<MIXTURE> 7 8.681227e-02
<MEAN> 39
 -1.241716e+00 8.098086e-01 -6.437811e-01 7.276120e-01 -1.759040e-01 1.981581e-01 5.024606e-02 -8.904912e-02 -2.491237e-02 -1.991135e-02 6.288656e-02 -1.077492e-02 -1.146520e-01 -2.370142e-02 -3.072801e-02 -3.018015e-03 -1.452198e-02 1.548137e-02 -1.111064e-02 3.968564e-03 5.142903e-03 -3.345205e-03 -1.395171e-02 -5.363062e-03 7.177551e-04 -1.384583e-02 9.254318e-02 -4.198981e-02 6.298423e-02 -5.965244e-02 8.325499e-03 -2.970202e-02 -2.338541e-03 1.705142e-02 -4.868925e-04 1.453456e-02 1.090875e-03 -2.201996e-03 7.501973e-03
<VARIANCE> 39
 1.597874e-01 1.847993e-01 1.468813e-01 1.430304e-01 1.970867e-01 2.117870e-01 2.145578e-01 1.899915e-01 1.851359e-01 1.620052e-01 1.622704e-01 4.673469e-02 1.916991e-01 3.319514e-02 1.948975e-02 1.994470e-02 2.009112e-02 2.283286e-02 2.327413e-02 2.277706e-02 2.056982e-02 1.822473e-02 1.796265e-02 1.657598e-02 6.395501e-03 1.570390e-02 2.955896e-03 3.084905e-03 2.920951e-03 2.821980e-03 3.974894e-03 4.131376e-03 4.625682e-03 3.935530e-03 3.705931e-03 3.255457e-03 3.132940e-03 1.142538e-03 2.773068e-03
<GCONST> -7.882167e+01
<MIXTURE> 8 4.590065e-02
<MEAN> 39
 -8.495271e-01 -2.266333e-01 8.001165e-02 3.467017e-01 7.893535e-02 -2.017416e-02 1.005243e-01 1.893120e-01 -7.770438e-02 -1.883373e-01 1.998312e-01 8.806625e-02 -2.214541e-01 2.850223e-01 -1.970832e-02 -3.699338e-03 -8.232082e-04 -1.029109e-02 -3.697742e-02 -9.872690e-04 -3.585923e-03 1.183655e-02 -2.964018e-02 -3.637693e-02 -1.843853e-02 9.548936e-02 1.035684e-01 1.041842e-02 -4.221589e-02 -2.554809e-02 -2.529107e-02 -4.741149e-03 -3.740080e-03 -1.412234e-02 1.870705e-02 2.423364e-02 -2.052148e-02 -1.297776e-02 5.765883e-02
<VARIANCE> 39
 9.279446e-02 1.730973e-01 2.016061e-01 2.101559e-01 1.821814e-01 1.912672e-01 2.234552e-01 2.031328e-01 2.140138e-01 1.517052e-01 1.266730e-01 7.068659e-02 1.482621e-01 4.309819e-02 2.154590e-02 2.483376e-02 2.566628e-02 3.138537e-02 2.677946e-02 2.941646e-02 3.016250e-02 2.332165e-02 1.902557e-02 1.406082e-02 9.065014e-03 2.331475e-02 3.245328e-03 4.101827e-03 4.024791e-03 4.696427e-03 5.114563e-03 4.940433e-03 5.798259e-03 5.010754e-03 4.828649e-03 3.696091e-03 3.038295e-03 1.843571e-03 2.517346e-03
<GCONST> -7.315836e+01
<MIXTURE> 9 9.398082e-02
<MEAN> 39
 -1.130913e+00 1.823531e-01 -3.188652e-01 3.937824e-01 -2.294309e-02 2.390543e-01 3.954174e-02 2.690929e-02 8.743224e-02 1.567880e-01 5.089125e-02 -5.874617e-02 -1.298134e-01 -1.084032e-02 -1.175698e-02 -7.128709e-03 -4.519828e-03 -5.509857e-03 -9.835058e-03 2.602415e-03 6.757716e-04 -4.552216e-03 2.166303e-03 7.179385e-03 2.841138e-03 -9.684193e-03 1.810195e-02 5.171958e-03 1.217479e-02 -3.600077e-03 6.277689e-04 -9.152414e-03 -5.142079e-03 -7.702857e-03 -6.873029e-03 -1.587201e-02 -2.243970e-03 1.267249e-02 -3.898851e-03
<VARIANCE> 39
 1.641795e-01 2.264415e-01 2.023432e-01 1.858374e-01 1.870218e-01 1.690662e-01 1.826364e-01 1.781767e-01 1.718665e-01 1.352060e-01 1.339346e-01 4.748558e-02 1.708468e-01 2.889363e-03 5.072493e-03 6.665033e-03 9.004967e-03 1.123577e-02 1.183861e-02 1.318246e-02 1.380315e-02 1.303662e-02 1.212670e-02 1.035262e-02 4.537786e-03 2.528775e-03 7.365155e-04 9.496635e-04 1.265781e-03 1.551759e-03 1.983685e-03 2.217875e-03 2.640590e-03 2.534440e-03 2.487739e-03 2.076091e-03 2.075322e-03 7.110253e-04 3.996297e-04
<GCONST> -1.004350e+02
<MIXTURE> 10 8.121229e-02
<MEAN> 39
 -9.843306e-01 7.890719e-02 -2.556078e-01 1.822694e-01 -1.475837e-01 -6.328077e-02 -2.675117e-01 -1.505807e-01 8.003442e-02 -1.000877e-01 7.129416e-02 2.801832e-01 -2.674347e-01 -1.718083e-02 -1.191983e-02 -3.014558e-03 9.079751e-03 4.587053e-03 -1.062995e-02 -3.987723e-03 -1.316674e-02 -8.235831e-03 -2.244237e-03 -2.596988e-03 5.615181e-03 -1.895988e-02 3.430359e-02 1.442052e-02 2.273516e-02 1.453125e-02 2.322028e-02 2.795718e-02 3.485481e-02 2.159623e-02 2.425615e-03 1.676421e-02 -9.164045e-03 -3.215765e-02 4.703645e-03
<VARIANCE> 39
 1.247352e-01 2.045057e-01 1.648203e-01 1.571238e-01 1.677525e-01 1.831306e-01 1.813057e-01 1.754490e-01 1.862575e-01 1.535134e-01 1.472763e-01 4.805970e-02 1.723253e-01 5.591258e-03 6.918787e-03 8.013926e-03 1.058394e-02 1.258503e-02 1.397181e-02 1.548955e-02 1.463985e-02 1.441040e-02 1.358455e-02 1.175417e-02 5.739913e-03 5.079932e-03 1.417925e-03 1.470898e-03 1.783843e-03 2.002812e-03 2.334442e-03 2.673699e-03 2.930322e-03 2.747916e-03 2.947831e-03 2.619398e-03 2.498492e-03 8.167680e-04 1.047505e-03
<GCONST> -9.390874e+01
<MIXTURE> 11 7.561817e-02
<MEAN> 39
 -7.363014e-01 3.411951e-01 -2.869584e-01 2.486510e-01 -3.573012e-01 -9.499925e-03 2.213428e-02 3.164218e-01 2.098100e-01 2.478605e-01 2.393782e-02 -1.599423e-01 -5.143207e-01 1.972504e-02 -9.446115e-03 1.382119e-02 7.969934e-03 7.349406e-03 -3.047553e-02 -1.309017e-02 -3.640672e-03 -1.802777e-02 -1.562442e-02 8.004562e-03 4.683722e-03 -6.556228e-02 2.829249e-02 -7.992589e-03 2.780028e-02 7.473064e-03 4.077138e-02 1.490069e-02 -2.286668e-03 -3.772001e-02 -2.328602e-02 -2.770295e-02 -2.886079e-03 2.063447e-02 2.250383e-02
<VARIANCE> 39
 1.492597e-01 2.084889e-01 1.946860e-01 1.967016e-01 1.926132e-01 1.767930e-01 1.945428e-01 1.703299e-01 1.981598e-01 1.562092e-01 1.437206e-01 5.695929e-02 2.749131e-01 2.172382e-02 1.307278e-02 1.288876e-02 1.421812e-02 1.674406e-02 1.545749e-02 1.662798e-02 1.644972e-02 1.649361e-02 1.466111e-02 1.265655e-02 6.308923e-03 1.639355e-02 2.599666e-03 2.111304e-03 2.467036e-03 2.740841e-03 2.747017e-03 3.092308e-03 3.564677e-03 2.998966e-03 3.339343e-03 2.857548e-03 2.685274e-03 1.057053e-03 3.166794e-03
<GCONST> -8.374860e+01
<MIXTURE> 12 6.103177e-02
<MEAN> 39
 -1.447150e+00 4.223097e-01 -1.984838e-01 -1.168440e-01 1.306196e-01 -1.366819e-01 3.495632e-02 -3.444155e-01 1.078792e-01 4.944678e-02 -4.055215e-02 2.600535e-01 1.386916e-01 -2.812003e-02 -3.476529e-02 -1.115658e-02 -2.188885e-02 -1.541945e-03 -9.081541e-03 3.678924e-03 -1.282283e-02 -4.920023e-03 7.274393e-03 -1.124002e-02 1.053551e-02 -2.025844e-03 9.191341e-02 5.307976e-03 3.604802e-02 1.757924e-02 -4.250292e-03 1.980931e-02 5.513166e-05 3.760874e-02 -5.792145e-03 2.170025e-03 7.640771e-03 -3.106616e-02 -7.529661e-03
<VARIANCE> 39
 1.993135e-01 2.991484e-01 2.422073e-01 1.961547e-01 3.078877e-01 2.709177e-01 2.852647e-01 2.189842e-01 2.400424e-01 2.023463e-01 1.678418e-01 7.183056e-02 1.862135e-01 2.199683e-02 1.352349e-02 2.005653e-02 1.754440e-02 1.969325e-02 1.893908e-02 1.977178e-02 1.896279e-02 1.781642e-02 1.700888e-02 1.395799e-02 6.552614e-03 8.977500e-03 2.615042e-03 2.692386e-03 3.005871e-03 2.644225e-03 4.230962e-03 3.867302e-03 4.481448e-03 3.568631e-03 3.889210e-03 3.472517e-03 2.792433e-03 1.240613e-03 1.518756e-03
<GCONST> -7.848513e+01
<MIXTURE> 13 4.957239e-02
<MEAN> 39
 -8.200696e-01 3.552463e-01 1.102765e-01 5.675406e-01 1.481438e-01 2.308987e-01 7.880058e-03 -1.049636e-01 7.583871e-02 -7.452923e-02 -6.459455e-02 8.915236e-02 -4.993367e-01 1.453441e-01 2.236714e-02 5.122509e-02 6.728778e-03 -9.953312e-03 -4.513498e-02 -4.485503e-03 1.658425e-02 -3.352036e-02 -7.147221e-03 -1.009425e-03 -1.249370e-02 -1.420802e-01 4.684187e-02 -9.740108e-03 -2.417874e-02 -3.134231e-02 -2.297561e-02 -2.346904e-02 -3.780512e-03 1.872808e-02 -6.855064e-03 1.197289e-02 1.057782e-02 -1.232031e-02 6.226704e-03
<VARIANCE> 39
 1.019771e-01 2.706701e-01 1.718926e-01 1.893089e-01 1.927616e-01 2.077651e-01 2.046140e-01 1.799587e-01 1.717771e-01 1.372949e-01 1.164570e-01 5.191465e-02 2.174599e-01 1.971015e-02 1.759541e-02 1.480607e-02 1.776236e-02 1.724463e-02 1.783932e-02 1.902711e-02 1.821136e-02 1.719651e-02 1.571860e-02 1.289741e-02 6.698802e-03 3.146138e-02 3.100754e-03 3.307446e-03 2.527572e-03 3.265190e-03 3.553420e-03 3.899690e-03 4.045423e-03 3.622701e-03 3.478037e-03 2.805766e-03 2.434840e-03 1.125383e-03 5.136006e-03
<GCONST> -8.066076e+01
<MIXTURE> 14 3.619023e-02
<MEAN> 39
 -1.187672e+00 9.688286e-01 -1.459475e-01 2.534770e-01 1.811153e-01 -5.191293e-02 2.613327e-01 -1.029163e-01 1.109011e-01 1.518028e-01 7.335467e-02 -1.415574e-03 1.430622e-01 -2.684269e-01 3.850188e-02 -2.151949e-01 1.129813e-01 4.776686e-03 8.858709e-03 -2.736480e-04 -3.360042e-02 1.117196e-02 -4.174738e-02 -2.940317e-02 2.541171e-02 -6.056248e-02 1.030383e-01 -7.975939e-02 3.084284e-02 -3.550373e-02 -5.579246e-02 7.502713e-03 -3.864732e-02 1.283532e-02 -6.729855e-03 -4.284708e-03 -8.515347e-04 -4.191782e-03 9.660263e-03
<VARIANCE> 39
 1.640400e-01 2.114112e-01 2.448796e-01 2.587191e-01 2.836941e-01 3.053746e-01 2.531087e-01 2.498309e-01 2.081834e-01 2.053575e-01 2.111588e-01 7.335743e-02 1.699057e-01 3.079410e-02 2.598996e-02 2.442997e-02 2.755507e-02 2.872584e-02 2.817456e-02 2.692326e-02 2.243191e-02 2.042970e-02 1.835478e-02 1.661173e-02 9.158095e-03 1.154280e-02 2.842904e-03 4.339649e-03 3.942956e-03 4.837631e-03 5.632492e-03 5.653432e-03 5.150513e-03 4.696410e-03 4.416177e-03 4.049766e-03 3.662606e-03 1.663395e-03 1.689996e-03
<GCONST> -7.132661e+01
<MIXTURE> 15 4.664071e-02
<MEAN> 39
 -7.962491e-01 1.894791e-01 -1.801956e-01 2.163057e-01 -1.465486e-01 2.338120e-01 -7.165156e-02 1.213102e-01 2.367448e-01 8.704621e-02 2.853570e-02 1.612045e-02 -2.073028e-01 -1.969049e-01 -1.244714e-01 -1.658639e-01 -4.784575e-02 -7.048753e-02 -6.382648e-02 -6.896491e-02 2.149046e-03 1.077543e-02 -2.211477e-02 3.791782e-02 3.933308e-02 -5.794227e-02 7.423921e-02 1.097693e-02 3.461721e-02 -2.215333e-02 3.776285e-03 -2.692945e-02 1.362866e-02 -2.253504e-02 -2.146776e-02 9.151379e-03 -1.103445e-02 -1.332571e-03 3.476994e-02
<VARIANCE> 39
 8.956769e-02 1.743021e-01 1.781951e-01 1.980975e-01 2.299450e-01 2.215396e-01 2.466582e-01 2.203096e-01 2.069083e-01 1.805425e-01 1.701134e-01 7.489356e-02 1.634286e-01 9.597506e-03 1.260420e-02 1.090309e-02 1.779616e-02 1.893145e-02 1.834868e-02 1.998411e-02 2.042598e-02 1.826735e-02 1.824945e-02 1.448546e-02 7.852766e-03 5.585681e-03 1.263883e-03 2.179019e-03 2.539743e-03 3.417775e-03 3.848570e-03 4.358956e-03 4.761762e-03 4.115399e-03 3.839274e-03 3.496865e-03 3.169499e-03 1.577498e-03 1.212626e-03
<GCONST> -8.322127e+01
<MIXTURE> 16 4.718830e-02
<MEAN> 39
 -8.953788e-01 2.593825e-01 -2.139623e-01 4.162416e-01 -5.743734e-02 3.891906e-01 2.062995e-01 -1.558129e-01 -1.187146e-01 4.622033e-01 -1.214434e-01 -1.979096e-01 -2.494845e-02 2.409521e-01 -3.150970e-02 9.555940e-02 -6.888090e-02 -7.764883e-02 -8.622257e-02 6.152287e-02 6.906745e-02 -9.018349e-02 5.459248e-02 3.599899e-02 -5.601290e-02 1.143943e-01 7.913837e-02 -1.485415e-02 1.069548e-02 -3.527099e-02 -2.665413e-02 -5.889567e-02 -1.306310e-02 3.616337e-02 1.831102e-03 -4.035725e-02 2.145349e-02 1.559632e-02 3.476696e-02
<VARIANCE> 39
 1.338713e-01 2.389314e-01 1.875276e-01 1.757433e-01 2.173645e-01 1.801688e-01 1.821874e-01 1.896522e-01 2.060324e-01 1.355238e-01 1.702315e-01 7.325778e-02 1.940489e-01 3.585162e-02 1.918266e-02 2.043736e-02 2.181656e-02 2.372047e-02 2.751697e-02 2.667096e-02 2.492104e-02 1.898867e-02 2.126978e-02 1.614076e-02 9.056959e-03 2.013333e-02 3.058669e-03 3.249069e-03 3.574763e-03 3.332380e-03 4.207519e-03 3.944148e-03 4.395906e-03 3.933444e-03 4.276207e-03 3.506655e-03 3.152964e-03 1.663811e-03 3.097877e-03
<GCONST> -7.545573e+01
<STATE> 4
<NUMMIXES> 16
<MIXTURE> 1 4.138642e-02
<MEAN> 39
 -9.655063e-01 1.725015e-01 -8.428112e-02 -4.427926e-02 2.178131e-01 2.308355e-01 -3.892396e-02 -1.957558e-01 3.412543e-01 -5.979966e-02 -2.299340e-01 2.671903e-01 -1.108193e-01 2.921292e-01 1.065280e-01 1.579693e-01 -1.175906e-01 -5.095441e-02 -4.501260e-02 1.281214e-02 -4.620916e-02 -1.775765e-02 4.550609e-02 -5.952467e-02 -1.102118e-02 1.356771e-01 8.451487e-02 1.988013e-02 1.591096e-02 -2.782538e-02 -4.787090e-02 -3.183542e-02 -3.246930e-03 2.543511e-02 -2.747820e-02 2.381925e-02 2.365684e-02 -2.599910e-02 5.106991e-02
<VARIANCE> 39
 1.590278e-01 3.083615e-01 1.877177e-01 1.942354e-01 2.233255e-01 2.321610e-01 2.211777e-01 2.074046e-01 1.997066e-01 2.113441e-01 1.766917e-01 8.949594e-02 1.597758e-01 2.034930e-02 1.876944e-02 1.577401e-02 2.824895e-02 2.501917e-02 2.439891e-02 3.172538e-02 2.425722e-02 2.072808e-02 2.111696e-02 1.717623e-02 1.030533e-02 1.801988e-02 2.694145e-03 3.322662e-03 3.182224e-03 3.786345e-03 3.981900e-03 4.268671e-03 4.970128e-03 4.204243e-03 4.324981e-03 3.930579e-03 3.373972e-03 2.049723e-03 2.097249e-03
<GCONST> -7.412350e+01
<MIXTURE> 2 5.262704e-02
<MEAN> 39
 -1.074322e+00 6.138222e-02 -3.396692e-01 2.198799e-01 -2.522724e-02 2.543591e-01 -5.534104e-02 -1.311256e-01 1.751052e-01 1.418224e-01 -7.103978e-02 7.236326e-02 -7.021920e-02 8.736279e-03 2.758402e-02 4.074731e-02 6.710929e-02 4.777551e-02 5.645582e-02 5.061035e-02 1.823483e-02 -1.828923e-02 1.091290e-02 -2.378649e-02 -4.112178e-02 -1.188696e-02 5.606572e-02 2.574254e-02 3.761549e-02 1.134734e-02 2.172089e-03 -1.603524e-02 9.329729e-03 1.487653e-02 -1.942504e-02 -9.152770e-03 8.601718e-03 -7.714578e-03 -1.187043e-02
<VARIANCE> 39
 1.133192e-01 2.012599e-01 1.812993e-01 1.641972e-01 1.977903e-01 1.876647e-01 1.669467e-01 1.661449e-01 1.752982e-01 1.426053e-01 1.422900e-01 4.753521e-02 1.914777e-01 7.929858e-03 1.032893e-02 1.128706e-02 1.270035e-02 1.487163e-02 1.451883e-02 1.637440e-02 1.663501e-02 1.593664e-02 1.493243e-02 1.250454e-02 5.704256e-03 7.176671e-03 1.944121e-03 1.718697e-03 1.921745e-03 2.054632e-03 2.787086e-03 2.936012e-03 2.979741e-03 2.743361e-03 2.865134e-03 2.442749e-03 2.415718e-03 8.288589e-04 1.651166e-03
<GCONST> -9.044855e+01
<MIXTURE> 3 6.839556e-02
<MEAN> 39
 -8.411048e-01 -2.343272e-01 -3.365961e-01 3.642005e-02 -9.714493e-02 4.053510e-02 -6.302817e-02 2.710724e-01 2.300849e-01 2.925138e-02 1.449500e-01 8.957506e-03 -2.137386e-01 -4.300846e-02 -2.888890e-02 -1.432778e-02 -1.583165e-02 1.040402e-02 2.459424e-02 1.353949e-02 -3.125583e-02 2.357553e-02 -2.211270e-03 -1.709492e-02 1.269846e-02 6.792402e-02 7.518122e-02 5.533341e-02 5.292118e-02 2.352615e-02 1.408265e-02 5.544055e-03 1.192977e-02 -3.929934e-02 -2.666506e-02 -4.301489e-03 -2.560510e-02 5.144795e-04 2.330973e-03
<VARIANCE> 39
 9.417637e-02 1.421613e-01 1.412681e-01 1.435225e-01 1.416018e-01 1.517287e-01 1.597859e-01 1.496460e-01 1.529099e-01 1.217779e-01 1.087157e-01 5.416676e-02 1.930428e-01 2.424406e-02 1.499734e-02 1.600939e-02 1.873823e-02 1.906471e-02 1.759438e-02 1.951218e-02 2.108406e-02 1.940538e-02 1.744531e-02 1.403738e-02 8.323682e-03 2.164599e-02 3.068592e-03 2.674784e-03 2.958366e-03 3.312950e-03 3.248673e-03 3.413477e-03 3.810551e-03 3.470606e-03 3.530433e-03 2.952989e-03 2.485553e-03 1.366994e-03 4.391506e-03
<GCONST> -8.295528e+01
<MIXTURE> 4 4.709578e-02
<MEAN> 39
 -1.303340e+00 1.287884e-01 -4.552986e-02 -1.282279e-01 1.120296e-01 1.416470e-02 2.259627e-01 1.292625e-01 -8.362575e-02 1.582391e-01 2.244834e-01 -8.041045e-02 1.413774e-01 1.015983e-01 -5.043835e-02 9.430350e-02 -9.744210e-03 1.710757e-04 -8.390020e-03 -3.761131e-03 3.887394e-02 -1.827809e-02 -2.346291e-02 1.735933e-02 -1.129516e-02 -1.908623e-02 1.122723e-01 2.246095e-02 1.388593e-02 3.585919e-02 -1.795388e-02 -3.243909e-03 -3.449593e-02 -1.673903e-02 1.309626e-02 -1.956980e-02 -2.282608e-02 9.345725e-03 -1.975410e-02
<VARIANCE> 39
 1.502622e-01 2.824400e-01 3.405889e-01 3.068089e-01 4.576980e-01 3.091771e-01 3.325055e-01 2.778207e-01 2.256333e-01 2.291064e-01 1.855087e-01 9.576695e-02 1.668871e-01 4.130602e-02 2.567872e-02 2.957308e-02 2.581761e-02 2.972893e-02 2.690685e-02 2.617614e-02 2.386894e-02 2.086519e-02 2.082584e-02 1.804499e-02 9.871647e-03 1.721553e-02 3.312025e-03 3.802049e-03 5.283475e-03 4.405756e-03 8.154589e-03 5.655496e-03 6.195087e-03 4.973262e-03 4.450836e-03 4.407000e-03 3.684989e-03 1.810483e-03 3.519522e-03
<GCONST> -6.656207e+01
<MIXTURE> 5 9.482434e-02
<MEAN> 39
 -8.500662e-01 4.111756e-01 3.459133e-03 6.269611e-01 2.007695e-01 2.415738e-01 -4.126824e-02 4.391776e-02 -1.720177e-02 -1.510477e-01 -3.280329e-02 2.044769e-02 -4.139913e-01 -9.645822e-03 4.201666e-03 2.090859e-02 2.666560e-02 2.625024e-02 1.094539e-02 3.080083e-03 -4.937602e-03 -8.554228e-03 -7.081990e-03 -6.763179e-03 -3.258638e-03 -1.767072e-02 1.641963e-02 -1.434377e-02 -8.918086e-03 -3.178909e-02 -2.130330e-02 -1.181020e-02 1.391603e-03 -4.038118e-03 1.218495e-02 2.162617e-02 5.504665e-03 7.041579e-04 9.410901e-03
<VARIANCE> 39
 1.868489e-01 2.217446e-01 2.043129e-01 1.726495e-01 1.591640e-01 1.665918e-01 1.682730e-01 1.678969e-01 1.592457e-01 1.259445e-01 1.123272e-01 4.765315e-02 2.159391e-01 4.666287e-03 6.372219e-03 7.208089e-03 9.439307e-03 1.072855e-02 1.181782e-02 1.339736e-02 1.322695e-02 1.261710e-02 1.191373e-02 1.038188e-02 4.521578e-03 3.733593e-03 1.260021e-03 1.263772e-03 1.532620e-03 1.914440e-03 2.160122e-03 2.498669e-03 2.746897e-03 2.781218e-03 2.598276e-03 2.268380e-03 2.049954e-03 8.328556e-04 8.523206e-04
<GCONST> -9.710022e+01
<MIXTURE> 6 7.150142e-02
<MEAN> 39
 -8.585171e-01 9.350118e-02 -4.378705e-02 4.313438e-01 1.665615e-01 1.884173e-01 -1.477531e-01 -4.546504e-02 -1.589085e-02 -1.950264e-01 -1.926676e-03 1.450123e-01 -4.053738e-01 -8.688330e-02 -7.648774e-02 -5.687950e-02 -4.098836e-02 -3.537945e-03 9.635001e-03 1.020884e-02 -1.015858e-02 3.001518e-02 9.129796e-03 -5.184447e-03 1.821053e-02 4.199652e-02 7.160745e-02 1.346901e-02 1.314832e-02 -3.455482e-02 -3.042205e-02 -1.840689e-02 2.266218e-02 4.049010e-03 1.200163e-02 3.483066e-02 -5.638129e-03 -1.738594e-02 2.866935e-02
<VARIANCE> 39
 7.827505e-02 1.316780e-01 1.302397e-01 1.268584e-01 1.235652e-01 1.471311e-01 1.666677e-01 1.695123e-01 1.518839e-01 1.207434e-01 1.180221e-01 4.954740e-02 1.252096e-01 1.375747e-02 1.023677e-02 1.083535e-02 1.389642e-02 1.494012e-02 1.556386e-02 1.681502e-02 1.725652e-02 1.711732e-02 1.618491e-02 1.352647e-02 6.698668e-03 1.068037e-02 2.116746e-03 2.164198e-03 2.234285e-03 2.770731e-03 2.788247e-03 3.108259e-03 3.533620e-03 3.537904e-03 3.376531e-03 2.769961e-03 2.572096e-03 1.214074e-03 1.891030e-03
<GCONST> -8.977220e+01
<MIXTURE> 7 8.681227e-02
<MEAN> 39
 -1.241716e+00 8.098086e-01 -6.437811e-01 7.276120e-01 -1.759040e-01 1.981581e-01 5.024606e-02 -8.904912e-02 -2.491237e-02 -1.991135e-02 6.288656e-02 -1.077492e-02 -1.146520e-01 -2.370142e-02 -3.072801e-02 -3.018015e-03 -1.452198e-02 1.548137e-02 -1.111064e-02 3.968564e-03 5.142903e-03 -3.345205e-03 -1.395171e-02 -5.363062e-03 7.177551e-04 -1.384583e-02 9.254318e-02 -4.198981e-02 6.298423e-02 -5.965244e-02 8.325499e-03 -2.970202e-02 -2.338541e-03 1.705142e-02 -4.868925e-04 1.453456e-02 1.090875e-03 -2.201996e-03 7.501973e-03
<VARIANCE> 39
 1.597874e-01 1.847993e-01 1.468813e-01 1.430304e-01 1.970867e-01 2.117870e-01 2.145578e-01 1.899915e-01 1.851359e-01 1.620052e-01 1.622704e-01 4.673469e-02 1.916991e-01 3.319514e-02 1.948975e-02 1.994470e-02 2.009112e-02 2.283286e-02 2.327413e-02 2.277706e-02 2.056982e-02 1.822473e-02 1.796265e-02 1.657598e-02 6.395501e-03 1.570390e-02 2.955896e-03 3.084905e-03 2.920951e-03 2.821980e-03 3.974894e-03 4.131376e-03 4.625682e-03 3.935530e-03 3.705931e-03 3.255457e-03 3.132940e-03 1.142538e-03 2.773068e-03
<GCONST> -7.882167e+01
<MIXTURE> 8 4.590065e-02
<MEAN> 39
 -8.495271e-01 -2.266333e-01 8.001165e-02 3.467017e-01 7.893535e-02 -2.017416e-02 1.005243e-01 1.893120e-01 -7.770438e-02 -1.883373e-01 1.998312e-01 8.806625e-02 -2.214541e-01 2.850223e-01 -1.970832e-02 -3.699338e-03 -8.232082e-04 -1.029109e-02 -3.697742e-02 -9.872690e-04 -3.585923e-03 1.183655e-02 -2.964018e-02 -3.637693e-02 -1.843853e-02 9.548936e-02 1.035684e-01 1.041842e-02 -4.221589e-02 -2.554809e-02 -2.529107e-02 -4.741149e-03 -3.740080e-03 -1.412234e-02 1.870705e-02 2.423364e-02 -2.052148e-02 -1.297776e-02 5.765883e-02
<VARIANCE> 39
 9.279446e-02 1.730973e-01 2.016061e-01 2.101559e-01 1.821814e-01 1.912672e-01 2.234552e-01 2.031328e-01 2.140138e-01 1.517052e-01 1.266730e-01 7.068659e-02 1.482621e-01 4.309819e-02 2.154590e-02 2.483376e-02 2.566628e-02 3.138537e-02 2.677946e-02 2.941646e-02 3.016250e-02 2.332165e-02 1.902557e-02 1.406082e-02 9.065014e-03 2.331475e-02 3.245328e-03 4.101827e-03 4.024791e-03 4.696427e-03 5.114563e-03 4.940433e-03 5.798259e-03 5.010754e-03 4.828649e-03 3.696091e-03 3.038295e-03 1.843571e-03 2.517346e-03
<GCONST> -7.315836e+01
<MIXTURE> 9 9.398082e-02
<MEAN> 39
 -1.130913e+00 1.823531e-01 -3.188652e-01 3.937824e-01 -2.294309e-02 2.390543e-01 3.954174e-02 2.690929e-02 8.743224e-02 1.567880e-01 5.089125e-02 -5.874617e-02 -1.298134e-01 -1.084032e-02 -1.175698e-02 -7.128709e-03 -4.519828e-03 -5.509857e-03 -9.835058e-03 2.602415e-03 6.757716e-04 -4.552216e-03 2.166303e-03 7.179385e-03 2.841138e-03 -9.684193e-03 1.810195e-02 5.171958e-03 1.217479e-02 -3.600077e-03 6.277689e-04 -9.152414e-03 -5.142079e-03 -7.702857e-03 -6.873029e-03 -1.587201e-02 -2.243970e-03 1.267249e-02 -3.898851e-03
<VARIANCE> 39
 1.641795e-01 2.264415e-01 2.023432e-01 1.858374e-01 1.870218e-01 1.690662e-01 1.826364e-01 1.781767e-01 1.718665e-01 1.352060e-01 1.339346e-01 4.748558e-02 1.708468e-01 2.889363e-03 5.072493e-03 6.665033e-03 9.004967e-03 1.123577e-02 1.183861e-02 1.318246e-02 1.380315e-02 1.303662e-02 1.212670e-02 1.035262e-02 4.537786e-03 2.528775e-03 7.365155e-04 9.496635e-04 1.265781e-03 1.551759e-03 1.983685e-03 2.217875e-03 2.640590e-03 2.534440e-03 2.487739e-03 2.076091e-03 2.075322e-03 7.110253e-04 3.996297e-04
<GCONST> -1.004350e+02
<MIXTURE> 10 8.121229e-02
<MEAN> 39
 -9.843306e-01 7.890719e-02 -2.556078e-01 1.822694e-01 -1.475837e-01 -6.328077e-02 -2.675117e-01 -1.505807e-01 8.003442e-02 -1.000877e-01 7.129416e-02 2.801832e-01 -2.674347e-01 -1.718083e-02 -1.191983e-02 -3.014558e-03 9.079751e-03 4.587053e-03 -1.062995e-02 -3.987723e-03 -1.316674e-02 -8.235831e-03 -2.244237e-03 -2.596988e-03 5.615181e-03 -1.895988e-02 3.430359e-02 1.442052e-02 2.273516e-02 1.453125e-02 2.322028e-02 2.795718e-02 3.485481e-02 2.159623e-02 2.425615e-03 1.676421e-02 -9.164045e-03 -3.215765e-02 4.703645e-03
<VARIANCE> 39
 1.247352e-01 2.045057e-01 1.648203e-01 1.571238e-01 1.677525e-01 1.831306e-01 1.813057e-01 1.754490e-01 1.862575e-01 1.535134e-01 1.472763e-01 4.805970e-02 1.723253e-01 5.591258e-03 6.918787e-03 8.013926e-03 1.058394e-02 1.258503e-02 1.397181e-02 1.548955e-02 1.463985e-02 1.441040e-02 1.358455e-02 1.175417e-02 5.739913e-03 5.079932e-03 1.417925e-03 1.470898e-03 1.783843e-03 2.002812e-03 2.334442e-03 2.673699e-03 2.930322e-03 2.747916e-03 2.947831e-03 2.619398e-03 2.498492e-03 8.167680e-04 1.047505e-03
<GCONST> -9.390874e+01
<MIXTURE> 11 7.561817e-02
<MEAN> 39
 -7.363014e-01 3.411951e-01 -2.869584e-01 2.486510e-01 -3.573012e-01 -9.499925e-03 2.213428e-02 3.164218e-01 2.098100e-01 2.478605e-01 2.393782e-02 -1.599423e-01 -5.143207e-01 1.972504e-02 -9.446115e-03 1.382119e-02 7.969934e-03 7.349406e-03 -3.047553e-02 -1.309017e-02 -3.640672e-03 -1.802777e-02 -1.562442e-02 8.004562e-03 4.683722e-03 -6.556228e-02 2.829249e-02 -7.992589e-03 2.780028e-02 7.473064e-03 4.077138e-02 1.490069e-02 -2.286668e-03 -3.772001e-02 -2.328602e-02 -2.770295e-02 -2.886079e-03 2.063447e-02 2.250383e-02
<VARIANCE> 39
 1.492597e-01 2.084889e-01 1.946860e-01 1.967016e-01 1.926132e-01 1.767930e-01 1.945428e-01 1.703299e-01 1.981598e-01 1.562092e-01 1.437206e-01 5.695929e-02 2.749131e-01 2.172382e-02 1.307278e-02 1.288876e-02 1.421812e-02 1.674406e-02 1.545749e-02 1.662798e-02 1.644972e-02 1.649361e-02 1.466111e-02 1.265655e-02 6.308923e-03 1.639355e-02 2.599666e-03 2.111304e-03 2.467036e-03 2.740841e-03 2.747017e-03 3.092308e-03 3.564677e-03 2.998966e-03 3.339343e-03 2.857548e-03 2.685274e-03 1.057053e-03 3.166794e-03
<GCONST> -8.374860e+01
<MIXTURE> 12 6.103177e-02
<MEAN> 39
 -1.447150e+00 4.223097e-01 -1.984838e-01 -1.168440e-01 1.306196e-01 -1.366819e-01 3.495632e-02 -3.444155e-01 1.078792e-01 4.944678e-02 -4.055215e-02 2.600535e-01 1.386916e-01 -2.812003e-02 -3.476529e-02 -1.115658e-02 -2.188885e-02 -1.541945e-03 -9.081541e-03 3.678924e-03 -1.282283e-02 -4.920023e-03 7.274393e-03 -1.124002e-02 1.053551e-02 -2.025844e-03 9.191341e-02 5.307976e-03 3.604802e-02 1.757924e-02 -4.250292e-03 1.980931e-02 5.513166e-05 3.760874e-02 -5.792145e-03 2.170025e-03 7.640771e-03 -3.106616e-02 -7.529661e-03
<VARIANCE> 39
 1.993135e-01 2.991484e-01 2.422073e-01 1.961547e-01 3.078877e-01 2.709177e-01 2.852647e-01 2.189842e-01 2.400424e-01 2.023463e-01 1.678418e-01 7.183056e-02 1.862135e-01 2.199683e-02 1.352349e-02 2.005653e-02 1.754440e-02 1.969325e-02 1.893908e-02 1.977178e-02 1.896279e-02 1.781642e-02 1.700888e-02 1.395799e-02 6.552614e-03 8.977500e-03 2.615042e-03 2.692386e-03 3.005871e-03 2.644225e-03 4.230962e-03 3.867302e-03 4.481448e-03 3.568631e-03 3.889210e-03 3.472517e-03 2.792433e-03 1.240613e-03 1.518756e-03
<GCONST> -7.848513e+01
<MIXTURE> 13 4.957239e-02
<MEAN> 39
 -8.200696e-01 3.552463e-01 1.102765e-01 5.675406e-01 1.481438e-01 2.308987e-01 7.880058e-03 -1.049636e-01 7.583871e-02 -7.452923e-02 -6.459455e-02 8.915236e-02 -4.993367e-01 1.453441e-01 2.236714e-02 5.122509e-02 6.728778e-03 -9.953312e-03 -4.513498e-02 -4.485503e-03 1.658425e-02 -3.352036e-02 -7.147221e-03 -1.009425e-03 -1.249370e-02 -1.420802e-01 4.684187e-02 -9.740108e-03 -2.417874e-02 -3.134231e-02 -2.297561e-02 -2.346904e-02 -3.780512e-03 1.872808e-02 -6.855064e-03 1.197289e-02 1.057782e-02 -1.232031e-02 6.226704e-03
<VARIANCE> 39
 1.019771e-01 2.706701e-01 1.718926e-01 1.893089e-01 1.927616e-01 2.077651e-01 2.046140e-01 1.799587e-01 1.717771e-01 1.372949e-01 1.164570e-01 5.191465e-02 2.174599e-01 1.971015e-02 1.759541e-02 1.480607e-02 1.776236e-02 1.724463e-02 1.783932e-02 1.902711e-02 1.821136e-02 1.719651e-02 1.571860e-02 1.289741e-02 6.698802e-03 3.146138e-02 3.100754e-03 3.307446e-03 2.527572e-03 3.265190e-03 3.553420e-03 3.899690e-03 4.045423e-03 3.622701e-03 3.478037e-03 2.805766e-03 2.434840e-03 1.125383e-03 5.136006e-03
<GCONST> -8.066076e+01
<MIXTURE> 14 3.619023e-02
<MEAN> 39
 -1.187672e+00 9.688286e-01 -1.459475e-01 2.534770e-01 1.811153e-01 -5.191293e-02 2.613327e-01 -1.029163e-01 1.109011e-01 1.518028e-01 7.335467e-02 -1.415574e-03 1.430622e-01 -2.684269e-01 3.850188e-02 -2.151949e-01 1.129813e-01 4.776686e-03 8.858709e-03 -2.736480e-04 -3.360042e-02 1.117196e-02 -4.174738e-02 -2.940317e-02 2.541171e-02 -6.056248e-02 1.030383e-01 -7.975939e-02 3.084284e-02 -3.550373e-02 -5.579246e-02 7.502713e-03 -3.864732e-02 1.283532e-02 -6.729855e-03 -4.284708e-03 -8.515347e-04 -4.191782e-03 9.660263e-03
<VARIANCE> 39
 1.640400e-01 2.114112e-01 2.448796e-01 2.587191e-01 2.836941e-01 3.053746e-01 2.531087e-01 2.498309e-01 2.081834e-01 2.053575e-01 2.111588e-01 7.335743e-02 1.699057e-01 3.079410e-02 2.598996e-02 2.442997e-02 2.755507e-02 2.872584e-02 2.817456e-02 2.692326e-02 2.243191e-02 2.042970e-02 1.835478e-02 1.661173e-02 9.158095e-03 1.154280e-02 2.842904e-03 4.339649e-03 3.942956e-03 4.837631e-03 5.632492e-03 5.653432e-03 5.150513e-03 4.696410e-03 4.416177e-03 4.049766e-03 3.662606e-03 1.663395e-03 1.689996e-03
<GCONST> -7.132661e+01
<MIXTURE> 15 4.664071e-02
<MEAN> 39
 -7.962491e-01 1.894791e-01 -1.801956e-01 2.163057e-01 -1.465486e-01 2.338120e-01 -7.165156e-02 1.213102e-01 2.367448e-01 8.704621e-02 2.853570e-02 1.612045e-02 -2.073028e-01 -1.969049e-01 -1.244714e-01 -1.658639e-01 -4.784575e-02 -7.048753e-02 -6.382648e-02 -6.896491e-02 2.149046e-03 1.077543e-02 -2.211477e-02 3.791782e-02 3.933308e-02 -5.794227e-02 7.423921e-02 1.097693e-02 3.461721e-02 -2.215333e-02 3.776285e-03 -2.692945e-02 1.362866e-02 -2.253504e-02 -2.146776e-02 9.151379e-03 -1.103445e-02 -1.332571e-03 3.476994e-02
<VARIANCE> 39
 8.956769e-02 1.743021e-01 1.781951e-01 1.980975e-01 2.299450e-01 2.215396e-01 2.466582e-01 2.203096e-01 2.069083e-01 1.805425e-01 1.701134e-01 7.489356e-02 1.634286e-01 9.597506e-03 1.260420e-02 1.090309e-02 1.779616e-02 1.893145e-02 1.834868e-02 1.998411e-02 2.042598e-02 1.826735e-02 1.824945e-02 1.448546e-02 7.852766e-03 5.585681e-03 1.263883e-03 2.179019e-03 2.539743e-03 3.417775e-03 3.848570e-03 4.358956e-03 4.761762e-03 4.115399e-03 3.839274e-03 3.496865e-03 3.169499e-03 1.577498e-03 1.212626e-03
<GCONST> -8.322127e+01
<MIXTURE> 16 4.718830e-02
<MEAN> 39
 -8.953788e-01 2.593825e-01 -2.139623e-01 4.162416e-01 -5.743734e-02 3.891906e-01 2.062995e-01 -1.558129e-01 -1.187146e-01 4.622033e-01 -1.214434e-01 -1.979096e-01 -2.494845e-02 2.409521e-01 -3.150970e-02 9.555940e-02 -6.888090e-02 -7.764883e-02 -8.622257e-02 6.152287e-02 6.906745e-02 -9.018349e-02 5.459248e-02 3.599899e-02 -5.601290e-02 1.143943e-01 7.913837e-02 -1.485415e-02 1.069548e-02 -3.527099e-02 -2.665413e-02 -5.889567e-02 -1.306310e-02 3.616337e-02 1.831102e-03 -4.035725e-02 2.145349e-02 1.559632e-02 3.476696e-02
<VARIANCE> 39
 1.338713e-01 2.389314e-01 1.875276e-01 1.757433e-01 2.173645e-01 1.801688e-01 1.821874e-01 1.896522e-01 2.060324e-01 1.355238e-01 1.702315e-01 7.325778e-02 1.940489e-01 3.585162e-02 1.918266e-02 2.043736e-02 2.181656e-02 2.372047e-02 2.751697e-02 2.667096e-02 2.492104e-02 1.898867e-02 2.126978e-02 1.614076e-02 9.056959e-03 2.013333e-02 3.058669e-03 3.249069e-03 3.574763e-03 3.332380e-03 4.207519e-03 3.944148e-03 4.395906e-03 3.933444e-03 4.276207e-03 3.506655e-03 3.152964e-03 1.663811e-03 3.097877e-03
<GCONST> -7.545573e+01
<TRANSP> 5
 0.000000e+00 1.000000e+00 0.000000e+00 0.000000e+00 0.000000e+00
 0.000000e+00 7.001698e-01 6.692832e-02 6.692832e-02 1.659736e-01
 0.000000e+00 6.952824e-02 4.331885e-01 4.331885e-01 6.409472e-02
 0.000000e+00 6.952824e-02 4.331885e-01 4.331885e-01 6.409472e-02
 0.000000e+00 0.000000e+00 0.000000e+00 0.000000e+00 0.000000e+00
<ENDHMM>
~h "g"
<BEGINHMM>
<NUMSTATES> 5
<STATE> 2
<NUMMIXES> 16
<MIXTURE> 1 3.941078e-02
<MEAN> 39
 9.367374e-01 -7.797601e-01 -7.946437e-01 6.502809e-02 3.242319e-01 8.090862e-02 -7.577254e-01 2.372680e-01 9.655261e-01 -2.412562e-01 -2.136413e-01 -1.175184e-01 7.652633e-01 -4.930961e-02 -1.449629e-01 1.168280e-01 1.819833e-01 -2.024722e-01 -1.077337e-01 1.264041e-01 1.312599e-01 3.596094e-02 -1.615392e-01 -7.836448e-02 1.187405e-01 6.310920e-02 -1.427660e-02 3.685856e-02 4.178273e-02 -1.004184e-02 -4.703003e-02 -7.316771e-03 8.575476e-02 -1.366493e-02 -1.002327e-01 1.602824e-02 5.131604e-02 1.865460e-02 -2.053402e-02
<VARIANCE> 39
 1.289429e-01 2.153141e-01 2.807661e-01 3.842371e-01 5.872826e-01 3.262715e-01 3.069010e-01 4.594517e-01 4.564777e-01 3.364409e-01 2.166928e-01 1.544367e-01 2.413310e-01 4.654226e-03 1.006455e-02 1.495168e-02 1.916191e-02 2.977176e-02 2.777321e-02 2.977701e-02 2.811601e-02 3.378683e-02 2.364516e-02 2.546272e-02 1.334084e-02 4.718737e-03 1.025092e-03 1.658177e-03 2.391114e-03 3.813372e-03 4.162118e-03 3.959445e-03 4.582583e-03 5.350146e-03 4.769578e-03 4.623756e-03 3.600413e-03 2.944806e-03 1.056726e-03
<GCONST> -7.277171e+01
<MIXTURE> 2 9.220551e-02
<MEAN> 39
 1.066437e+00 3.073193e-01 -7.623301e-01 -2.999488e-01 3.120687e-01 2.733805e-02 -1.225498e-01 -1.572417e-01 -9.022386e-02 9.146488e-02 2.653179e-01 6.048027e-02 -6.861847e-03 2.035594e-02 2.123707e-02 -2.528888e-02 -3.445991e-02 -1.774938e-03 4.312349e-02 3.267328e-02 -2.679494e-02 -3.502567e-02 -2.096943e-03 3.028144e-02 1.388752e-02 -2.538072e-03 -3.116667e-02 -4.547450e-02 -2.007338e-03 3.574065e-02 1.130418e-02 -2.246225e-02 -1.853248e-02 2.460395e-02 3.790768e-02 -1.233923e-03 -2.472325e-02 -1.820428e-02 3.125804e-02
<VARIANCE> 39
 1.088797e-01 1.783445e-01 3.898178e-01 3.958945e-01 3.140867e-01 2.550944e-01 2.822849e-01 2.519077e-01 2.349100e-01 2.085329e-01 1.614985e-01 1.325001e-01 2.216899e-01 1.019019e-02 1.513859e-02 3.454906e-02 2.273180e-02 1.930916e-02 2.004537e-02 2.136595e-02 2.012889e-02 2.243725e-02 1.857729e-02 1.497247e-02 1.215086e-02 1.844311e-02 1.695790e-03 2.071575e-03 3.806580e-03 3.578248e-03 4.077264e-03 3.861277e-03 4.340020e-03 4.857781e-03 3.964029e-03 3.694865e-03 2.893373e-03 2.204073e-03 2.041842e-03
<GCONST> -7.446747e+01
<MIXTURE> 3 5.667354e-02
<MEAN> 39
 9.953955e-01 -1.035186e+00 -1.487782e-01 7.764814e-01 -1.020878e+00 -1.672682e-01 2.116823e-01 1.655671e-01 3.626846e-01 -8.984315e-02 -2.491314e-02 9.099615e-02 6.074772e-01 8.976253e-02 -1.541155e-01 -8.143869e-03 -1.051952e-02 -2.370369e-01 7.461299e-02 7.936814e-02 4.498629e-03 3.607683e-02 -2.842615e-02 1.818984e-02 1.517728e-02 1.534587e-01 -1.022646e-01 6.120160e-02 3.739017e-02 -7.428962e-02 7.240928e-02 4.210914e-02 -2.282240e-02 -1.075970e-02 -2.602733e-02 -3.976382e-05 1.808565e-02 -1.296627e-02 -2.699366e-02
<VARIANCE> 39
 1.070883e-01 2.609093e-01 3.396258e-01 2.911067e-01 4.492310e-01 4.846944e-01 2.981575e-01 2.311756e-01 2.366803e-01 2.236726e-01 1.702921e-01 1.240831e-01 1.968311e-01 4.042120e-02 2.389901e-02 3.618635e-02 3.735069e-02 4.601818e-02 4.486577e-02 3.384291e-02 2.495990e-02 2.590480e-02 2.422289e-02 1.739810e-02 1.333105e-02 1.923752e-02 3.870167e-03 3.941651e-03 4.030638e-03 4.981176e-03 6.996002e-03 6.736456e-03 5.191505e-03 4.375335e-03 4.287208e-03 4.404422e-03 3.140003e-03 2.564794e-03 2.506594e-03
<GCONST> -6.449370e+01
<MIXTURE> 4 6.781489e-02
<MEAN> 39
 5.014337e-01 -4.581251e-01 -2.165064e-01 2.383033e-01 -3.579299e-01 -6.580977e-01 3.619215e-01 5.490863e-01 -2.136953e-01 -1.313201e-01 2.361930e-01 2.305863e-02 7.526765e-01 1.217245e-01 -2.879175e-02 -2.154181e-01 1.379165e-01 1.741607e-01 -1.470609e-01 -1.411890e-01 1.245810e-01 1.148586e-01 -1.134030e-01 -3.832818e-02 6.131542e-02 -5.990731e-02 -9.210753e-03 4.190711e-02 -3.380814e-03 -4.781177e-02 4.065531e-02 7.013509e-02 -6.245833e-02 -6.422677e-02 5.385660e-02 3.014754e-02 -4.018795e-02 -1.145533e-02 -2.151018e-02
<VARIANCE> 39
 1.347839e-01 2.689685e-01 4.704356e-01 3.144549e-01 3.714278e-01 3.469811e-01 4.315637e-01 3.277659e-01 3.173960e-01 2.771035e-01 2.038135e-01 1.647147e-01 2.816320e-01 9.908010e-03 1.540493e-02 2.016394e-02 2.540447e-02 2.750086e-02 2.817152e-02 3.195050e-02 2.811875e-02 2.720900e-02 2.180046e-02 1.950403e-02 1.457055e-02 1.354839e-02 1.940787e-03 2.386329e-03 3.847619e-03 4.444685e-03 5.137927e-03 4.697604e-03 5.584503e-03 5.168057e-03 4.592312e-03 4.664899e-03 3.361855e-03 2.997777e-03 2.233449e-03
<GCONST> -6.779163e+01
<MIXTURE> 5 9.741130e-02
<MEAN> 39
 9.116781e-01 -2.493954e-01 -8.307018e-01 2.499038e-01 3.257110e-01 -4.550828e-01 -4.983145e-01 2.319675e-01 5.201131e-01 7.544572e-02 -1.067768e-01 -1.115969e-01 3.716726e-01 6.115534e-02 1.105351e-01 -2.557068e-02 -2.984008e-02 8.396227e-02 8.816797e-02 -8.658444e-02 -1.320543e-01 8.675628e-04 8.007365e-02 2.821705e-02 -3.650993e-02 -1.276212e-01 -3.904411e-02 1.861893e-03 4.944133e-02 -1.593091e-02 -4.550934e-02 3.107554e-02 6.688658e-02 -6.647001e-03 -6.142421e-02 -1.335779e-02 2.636573e-02 1.213831e-02 6.482923e-03
<VARIANCE> 39
 1.039993e-01 2.217760e-01 4.989491e-01 3.683644e-01 3.965999e-01 3.880888e-01 3.544585e-01 3.825749e-01 3.190033e-01 2.763996e-01 1.872334e-01 1.571210e-01 2.569993e-01 1.104003e-02 1.418104e-02 3.977364e-02 2.419782e-02 3.146407e-02 2.632731e-02 3.071595e-02 2.900567e-02 3.092922e-02 2.294509e-02 1.956608e-02 1.412291e-02 1.574406e-02 1.658252e-03 2.539582e-03 3.874526e-03 4.390792e-03 4.439625e-03 5.269189e-03 4.932173e-03 6.087394e-03 4.420433e-03 4.587842e-03 3.200371e-03 2.738922e-03 2.950865e-03
<GCONST> -6.710423e+01
<MIXTURE> 6 7.529243e-02
<MEAN> 39
 3.555320e-01 -5.038986e-01 6.562782e-01 -5.409772e-01 -9.948207e-01 6.729460e-01 -1.803996e-01 8.706217e-02 2.084013e-01 -4.710728e-02 2.395078e-01 -2.395785e-01 8.288425e-01 1.229620e-01 -1.770132e-01 9.080023e-04 1.242299e-01 -2.215817e-01 6.252497e-02 3.866950e-02 -1.458095e-02 6.011689e-02 -5.275029e-02 5.189638e-02 -2.075989e-03 2.326352e-02 -2.126260e-02 3.062530e-02 -4.050564e-02 4.103332e-02 5.809785e-02 -5.538912e-02 1.803130e-02 -7.016629e-04 -9.572953e-03 6.897800e-03 -2.492940e-02 2.678522e-02 -3.509922e-02
<VARIANCE> 39
 1.051099e-01 3.889537e-01 1.870666e-01 3.238111e-01 4.247995e-01 3.873914e-01 3.740360e-01 3.033669e-01 2.566954e-01 1.738067e-01 1.440997e-01 1.126027e-01 1.972886e-01 1.541348e-02 1.924220e-02 1.626068e-02 3.595970e-02 3.284876e-02 3.589360e-02 2.851607e-02 2.271637e-02 2.012819e-02 1.805698e-02 1.476077e-02 1.380254e-02 1.670897e-02 3.779869e-03 3.182175e-03 2.581339e-03 3.867693e-03 5.940102e-03 4.145389e-03 4.297742e-03 3.699939e-03 3.408322e-03 2.995208e-03 2.588460e-03 2.048808e-03 1.768381e-03
<GCONST> -7.180202e+01
<MIXTURE> 7 1.104631e-01
<MEAN> 39
 1.562500e-01 8.881366e-02 5.232929e-02 3.789525e-01 1.923321e-01 -1.688422e-01 -9.024198e-02 1.062077e-01 2.781151e-02 -8.921830e-02 6.788503e-03 3.006055e-02 -2.612250e-01 1.652670e-01 -1.046752e-02 -8.083113e-02 -5.653711e-02 -3.391723e-02 -3.051113e-02 -3.080719e-02 5.735767e-03 3.502910e-02 1.778087e-02 -1.125242e-03 -1.086045e-02 1.481729e-01 1.920625e-02 -2.788662e-02 -3.400529e-02 -3.489888e-02 -3.403080e-02 6.754661e-03 6.385059e-04 5.110959e-04 8.168068e-03 1.392293e-02 7.754071e-03 -7.055299e-03 4.755668e-02
<VARIANCE> 39
 3.018017e-01 4.249775e-01 3.195432e-01 3.446721e-01 3.246989e-01 2.788834e-01 2.324885e-01 2.144780e-01 1.919196e-01 1.482699e-01 1.324016e-01 9.763807e-02 3.808842e-01 5.360377e-02 4.111887e-02 4.182044e-02 3.787071e-02 4.697545e-02 3.635273e-02 3.593400e-02 2.942630e-02 2.692597e-02 2.188262e-02 1.802535e-02 1.289126e-02 3.344557e-02 4.781549e-03 4.622588e-03 4.898503e-03 4.964107e-03 5.855348e-03 5.442516e-03 4.807178e-03 4.425895e-03 3.854385e-03 3.293326e-03 2.784945e-03 2.104221e-03 3.846788e-03
<GCONST> -6.318577e+01
<MIXTURE> 8 2.453912e-02
<MEAN> 39
 1.756242e-01 -2.891444e-01 -2.781810e-01 -4.499918e-01 -5.925409e-01 -7.248356e-01 -7.184209e-01 -6.254569e-01 -1.612740e-01 1.303379e-01 4.946748e-01 6.945882e-01 2.287243e-01 6.066291e-02 1.071855e-01 8.339528e-02 1.306526e-01 4.087942e-02 2.297195e-02 2.773359e-02 4.853902e-02 -4.024386e-02 -6.707966e-02 -1.335759e-01 -1.125317e-01 -1.573905e-01 -2.639741e-02 -4.744802e-03 -9.281259e-03 1.255725e-02 2.432814e-02 3.760452e-02 3.618407e-02 3.899605e-02 1.416525e-02 1.024893e-02 -4.024352e-03 -4.094025e-02 1.149073e-02
<VARIANCE> 39
 2.423211e-01 4.568850e-01 4.859143e-01 5.912911e-01 4.411590e-01 5.657466e-01 4.614489e-01 4.582910e-01 6.335263e-01 6.417886e-01 5.450138e-01 3.023014e-01 5.429127e-01 2.080570e-02 2.950509e-02 3.166233e-02 4.293444e-02 3.739827e-02 4.486250e-02 4.100129e-02 3.882749e-02 4.434872e-02 4.347379e-02 4.237420e-02 4.119598e-02 3.501620e-02 3.147074e-03 4.583395e-03 5.105458e-03 7.003547e-03 6.023128e-03 8.260836e-03 7.160830e-03 7.433244e-03 8.771965e-03 9.196941e-03 8.259735e-03 5.938819e-03 6.271985e-03
<GCONST> -4.636377e+01
<MIXTURE> 9 5.166615e-02
<MEAN> 39
 8.503481e-01 -3.016546e-01 -1.207009e+00 2.389421e-01 5.832930e-01 -6.612727e-01 -4.355129e-01 4.635662e-01 4.652102e-01 7.485518e-02 -2.304747e-01 -1.439561e-01 6.443943e-01 -1.062615e-01 -1.708922e-01 4.657955e-02 1.000731e-01 -1.005825e-01 -1.407099e-01 1.533952e-01 2.369225e-01 -6.426372e-02 -1.661475e-01 -2.136314e-02 7.495115e-02 1.717152e-01 -4.374890e-02 1.037735e-02 1.029257e-01 -2.167673e-02 -8.276246e-02 5.859292e-02 8.488781e-02 -4.047404e-02 -8.944157e-02 -4.453669e-03 5.103656e-02 1.548764e-02 -1.693862e-02
<VARIANCE> 39
 1.145720e-01 1.800013e-01 3.595853e-01 3.018405e-01 2.960313e-01 3.094356e-01 3.291920e-01 3.662118e-01 2.558336e-01 2.405071e-01 1.807202e-01 1.476172e-01 2.401803e-01 9.406897e-03 1.376737e-02 3.365983e-02 2.293955e-02 3.227459e-02 2.989853e-02 3.394372e-02 3.220435e-02 2.862394e-02 2.198329e-02 2.059537e-02 1.446198e-02 1.278004e-02 2.489116e-03 2.521877e-03 4.073234e-03 4.935126e-03 4.303548e-03 5.464267e-03 5.413739e-03 6.387183e-03 4.576748e-03 4.363113e-03 3.261338e-03 2.888058e-03 2.714040e-03
<GCONST> -6.852612e+01
<MIXTURE> 10 6.588323e-02
<MEAN> 39
 9.581513e-01 -1.040771e-01 -9.997636e-01 6.377100e-02 5.227371e-01 -2.439095e-01 -4.361814e-01 7.005452e-02 3.332458e-01 2.245031e-01 -5.085485e-02 -1.954896e-01 3.473022e-01 1.197710e-01 -9.932046e-02 -1.967830e-01 -4.220647e-02 9.584308e-03 -7.320006e-02 -2.222508e-02 8.751918e-02 8.293539e-02 1.000708e-02 -3.267072e-02 -1.381664e-02 2.006933e-01 -8.443975e-02 -2.323417e-02 6.313884e-02 3.064144e-02 -4.847253e-02 5.666534e-04 5.511118e-02 2.410719e-02 -3.750633e-02 -4.009126e-02 1.109225e-02 2.721043e-02 -1.663277e-02
<VARIANCE> 39
 1.074463e-01 2.120670e-01 3.529160e-01 2.971836e-01 2.768748e-01 2.979270e-01 2.586614e-01 2.966312e-01 2.485141e-01 2.182243e-01 1.423835e-01 1.128968e-01 2.471254e-01 3.779401e-02 3.003698e-02 4.754638e-02 4.224167e-02 3.168837e-02 3.766354e-02 3.301315e-02 3.729573e-02 2.858615e-02 2.744245e-02 2.110450e-02 1.549028e-02 2.765726e-02 3.851020e-03 3.762314e-03 5.395908e-03 4.336354e-03 4.901289e-03 4.884289e-03 5.285427e-03 5.328024e-03 4.414218e-03 4.153249e-03 2.729369e-03 2.300984e-03 3.836528e-03
<GCONST> -6.442150e+01
<MIXTURE> 11 6.937085e-02
<MEAN> 39
 7.585722e-01 -9.167146e-01 3.906300e-01 5.425737e-01 -1.558057e+00 1.498437e-01 4.991708e-01 -2.224268e-01 3.821061e-01 -4.467823e-02 1.772109e-01 8.000879e-02 5.809163e-01 -6.781569e-02 1.206360e-01 9.886141e-02 -8.176710e-02 1.002008e-01 4.368256e-02 -4.837731e-02 -4.674277e-02 -2.722214e-02 2.239001e-02 3.637297e-03 -1.953866e-02 -8.111674e-02 -4.317572e-02 6.018422e-02 -1.889243e-02 -4.086977e-02 1.158043e-01 -8.454019e-03 -5.758454e-02 3.536267e-02 -1.979860e-02 1.429780e-03 -1.429511e-02 -1.508015e-02 -3.210373e-02
<VARIANCE> 39
 1.038232e-01 2.621156e-01 2.818298e-01 3.156555e-01 4.280505e-01 4.877018e-01 2.771053e-01 3.017442e-01 2.192698e-01 1.967639e-01 1.247119e-01 1.087310e-01 2.476582e-01 1.919204e-02 2.115794e-02 2.819902e-02 5.205896e-02 4.948910e-02 4.906454e-02 3.011111e-02 2.568193e-02 2.637871e-02 2.075117e-02 1.633774e-02 1.206385e-02 2.657781e-02 2.862728e-03 3.340331e-03 4.066386e-03 4.298110e-03 6.540853e-03 5.222916e-03 4.443707e-03 4.274144e-03 4.014204e-03 3.492060e-03 2.595978e-03 2.030378e-03 2.401731e-03
<GCONST> -6.745030e+01
<MIXTURE> 12 6.022299e-02
<MEAN> 39
 1.103160e+00 -2.914179e-03 -1.099682e+00 -4.888067e-01 5.678933e-01 2.621902e-01 -4.277453e-01 -3.399341e-01 1.652652e-01 3.073551e-01 4.111981e-01 -1.557390e-01 4.106356e-01 -1.940582e-02 -1.357755e-01 -7.140049e-02 9.126139e-02 4.969181e-02 -4.248223e-02 -9.951070e-02 3.939560e-02 1.568125e-01 1.682405e-02 -7.129153e-02 -6.825109e-02 1.060706e-01 -3.815258e-02 -3.443148e-02 5.376634e-02 6.795861e-02 -3.972245e-02 -6.570265e-02 2.265673e-02 7.363167e-02 1.955355e-02 -5.508917e-02 -5.445882e-02 2.015881e-02 1.029261e-02
<VARIANCE> 39
 1.076511e-01 2.044854e-01 3.067841e-01 3.666669e-01 3.664111e-01 3.206257e-01 3.995839e-01 3.065309e-01 3.901168e-01 2.420822e-01 1.880225e-01 1.684465e-01 2.286317e-01 7.129796e-03 1.538756e-02 2.489823e-02 2.977875e-02 2.690261e-02 2.892479e-02 2.913607e-02 3.232351e-02 3.404186e-02 2.498360e-02 2.213490e-02 1.472095e-02 1.126647e-02 1.598605e-03 2.156890e-03 3.456113e-03 3.582581e-03 4.825624e-03 4.030067e-03 6.201658e-03 5.188145e-03 5.797452e-03 4.118548e-03 3.243995e-03 3.216684e-03 1.859637e-03
<GCONST> -6.935788e+01
<MIXTURE> 13 6.486482e-02
<MEAN> 39
 5.053427e-01 5.734226e-02 2.132887e-01 5.369720e-01 3.540081e-02 -2.542401e-02 -2.521297e-01 -1.902790e-01 -1.532729e-01 -1.617332e-01 -1.171148e-01 -1.110849e-01 -2.837543e-01 -1.679941e-02 4.536347e-02 1.951471e-02 -8.999670e-03 4.091205e-02 3.704532e-03 3.013276e-03 2.232338e-02 -1.543646e-02 -1.197967e-02 2.775631e-03 8.463538e-04 -2.036646e-02 -2.108045e-02 -5.033517e-02 -6.219078e-02 -6.250507e-02 -3.460103e-02 -2.089519e-02 2.060488e-02 3.098760e-02 3.128310e-02 1.785410e-02 2.302063e-02 1.680984e-02 7.803931e-02
<VARIANCE> 39
 2.363334e-01 3.235375e-01 4.834597e-01 4.419402e-01 5.467601e-01 5.592053e-01 5.284408e-01 4.467082e-01 4.420062e-01 3.257138e-01 2.731221e-01 2.264374e-01 3.433934e-01 3.272912e-02 2.994451e-02 4.151760e-02 3.708439e-02 4.153948e-02 4.139601e-02 4.396205e-02 3.725269e-02 3.621106e-02 2.782660e-02 2.414455e-02 1.922821e-02 5.386724e-02 3.412229e-03 4.014722e-03 5.927792e-03 5.957655e-03 7.314428e-03 8.578860e-03 9.168662e-03 8.136773e-03 7.498651e-03 6.504129e-03 5.406077e-03 4.537154e-03 4.907884e-03
<GCONST> -5.102662e+01
<MIXTURE> 14 5.127635e-02
<MEAN> 39
 4.335259e-01 -5.699171e-01 8.389955e-01 -5.608920e-01 -1.253627e+00 9.671263e-01 -3.989032e-01 5.774977e-02 3.421131e-01 -4.351949e-02 1.978278e-01 -2.429256e-01 7.248865e-01 -1.102298e-01 2.290351e-01 4.337447e-02 -1.809575e-01 2.472467e-01 -4.541605e-02 -1.004250e-01 2.831770e-02 -1.037885e-02 3.198602e-02 -4.702206e-02 7.400701e-03 -5.090994e-02 -2.024080e-02 4.399629e-02 -6.381976e-02 5.886739e-02 9.151857e-02 -1.043691e-01 4.116503e-02 2.166911e-02 -3.673504e-02 5.434763e-03 -1.843516e-02 2.696653e-02 -4.242083e-02
<VARIANCE> 39
 1.016020e-01 3.470404e-01 2.062358e-01 3.296711e-01 4.386075e-01 3.048714e-01 3.463936e-01 3.120559e-01 2.455727e-01 1.632144e-01 1.370273e-01 9.729041e-02 2.157137e-01 1.501142e-02 2.254583e-02 1.964235e-02 4.915242e-02 4.079168e-02 4.300098e-02 3.910434e-02 2.922868e-02 2.358267e-02 1.894549e-02 1.524241e-02 1.348751e-02 2.358210e-02 4.119655e-03 3.738301e-03 3.628361e-03 4.677959e-03 7.110652e-03 5.170602e-03 5.402818e-03 4.735969e-03 4.058440e-03 3.362711e-03 2.938375e-03 2.092047e-03 2.183506e-03
<GCONST> -6.784320e+01
<MIXTURE> 15 4.815566e-02
<MEAN> 39
 2.531578e-01 -5.155817e-01 -3.752424e-01 -2.923937e-01 -4.436390e-01 -3.729949e-01 7.437140e-02 4.671516e-01 3.509205e-01 9.507627e-02 -7.802606e-02 -2.121359e-01 5.614804e-01 -3.739594e-03 -3.082101e-02 -8.960026e-03 -3.265176e-02 -1.658270e-02 -3.265772e-03 5.686440e-03 -8.237649e-03 -3.888694e-03 1.322396e-02 3.884363e-02 1.431078e-02 4.389608e-02 -8.720741e-03 2.448759e-02 6.243640e-03 2.660429e-02 3.518450e-02 1.972037e-02 -2.750552e-02 -5.593809e-02 -3.135990e-02 1.536427e-03 2.555366e-02 2.813750e-02 -2.498496e-02
<VARIANCE> 39
 3.488199e-01 4.949944e-01 5.687612e-01 6.751061e-01 6.558992e-01 6.171696e-01 6.886585e-01 6.340128e-01 7.991915e-01 7.161779e-01 5.132749e-01 3.479085e-01 6.549568e-01 2.604203e-02 4.568154e-02 5.275203e-02 6.407161e-02 6.138923e-02 6.321421e-02 6.673647e-02 6.710595e-02 6.976457e-02 5.589722e-02 4.610372e-02 3.965646e-02 5.586239e-02 4.565632e-03 6.540042e-03 7.261672e-03 1.001375e-02 1.008772e-02 1.115598e-02 1.163935e-02 1.081508e-02 1.214174e-02 1.204529e-02 9.411158e-03 7.018324e-03 7.967751e-03
<GCONST> -3.490167e+01
<MIXTURE> 16 2.477977e-02
<MEAN> 39
 -2.858182e-01 -7.392290e-01 -6.365784e-01 -7.533609e-01 -5.770385e-01 -5.269083e-01 -6.777122e-01 -8.832192e-01 -4.659238e-01 1.065319e-01 8.884801e-01 1.138291e+00 9.516078e-01 -2.828911e-02 -5.229264e-02 -3.117004e-02 -7.126877e-02 -1.592287e-02 -2.242892e-03 -4.032419e-02 -6.899419e-02 -3.344033e-02 1.882417e-03 7.106267e-02 9.444364e-02 6.793255e-02 1.750018e-02 3.872044e-02 3.213145e-02 5.042546e-02 2.395238e-02 6.599246e-03 2.264239e-02 5.909161e-02 3.521629e-02 -2.274116e-03 -6.689513e-02 -9.286574e-02 -5.486397e-02
<VARIANCE> 39
 2.098195e-01 6.099765e-01 4.211855e-01 7.369435e-01 4.842875e-01 5.129204e-01 4.270816e-01 3.474204e-01 4.651505e-01 6.460459e-01 6.185932e-01 2.517382e-01 3.331547e-01 2.206732e-02 4.487473e-02 3.848602e-02 5.673877e-02 4.317554e-02 5.097446e-02 4.627039e-02 4.976970e-02 6.270961e-02 8.802351e-02 7.832876e-02 5.318316e-02 3.422011e-02 3.536467e-03 5.158775e-03 5.749994e-03 8.437121e-03 7.229841e-03 9.276999e-03 8.680012e-03 7.894888e-03 9.663136e-03 1.147983e-02 1.070957e-02 7.103388e-03 3.852542e-03
<GCONST> -4.249517e+01
<STATE> 3
<NUMMIXES> 16
<MIXTURE> 1 5.450508e-02
<MEAN> 39
 1.056021e+00 -1.050845e+00 -4.146191e-01 1.042530e+00 -1.134648e+00 -4.810316e-01 5.291126e-01 9.874600e-02 3.676583e-01 1.872045e-01 -1.557278e-01 2.884039e-02 5.869991e-01 -4.499214e-02 6.011317e-03 7.135424e-02 -4.128551e-02 -4.469429e-02 4.890363e-02 2.938756e-02 -1.478215e-02 -6.191679e-03 -3.198923e-02 2.372320e-02 2.599751e-02 1.347671e-02 -1.918253e-02 1.755858e-02 2.398613e-02 -4.081488e-02 2.085707e-02 3.863147e-02 -2.257540e-02 -1.640972e-02 8.546764e-03 -1.079245e-02 8.320651e-03 2.494318e-03 -5.984124e-04
<VARIANCE> 39
 1.099587e-01 2.244273e-01 4.111066e-01 3.386101e-01 5.415986e-01 4.563041e-01 3.119885e-01 2.716153e-01 2.458816e-01 2.339022e-01 1.892836e-01 1.314854e-01 2.087714e-01 3.099133e-03 6.521946e-03 9.452962e-03 1.240044e-02 1.795082e-02 1.991778e-02 1.507131e-02 1.400096e-02 1.270592e-02 1.065044e-02 8.811899e-03 6.970709e-03 4.021059e-03 6.354680e-04 1.019052e-03 1.544789e-03 2.070932e-03 2.782996e-03 2.486770e-03 2.477543e-03 2.225248e-03 1.901566e-03 1.798215e-03 1.577153e-03 1.279416e-03 5.925092e-04
<GCONST> -9.038303e+01
<MIXTURE> 2 8.466648e-02
<MEAN> 39
 6.170634e-01 -6.069500e-01 -8.887316e-01 4.288442e-01 2.918234e-01 -6.829425e-01 -1.138657e-02 8.298629e-01 1.338014e-01 -4.951766e-01 -3.720341e-02 1.646572e-01 8.557556e-01 -1.023150e-01 -7.746100e-02 1.669573e-01 2.819939e-02 -2.000917e-01 -2.639543e-03 2.455601e-01 4.568689e-02 -2.164299e-01 -5.222580e-02 1.267828e-01 3.894639e-02 8.364537e-02 -9.613941e-03 4.053695e-02 5.083629e-02 -5.417274e-02 -3.361847e-02 7.535040e-02 1.631671e-02 -1.010642e-01 -2.186361e-02 8.363978e-02 1.570741e-02 -4.371839e-02 -2.494828e-02
<VARIANCE> 39
 1.127213e-01 2.149733e-01 3.900295e-01 3.336226e-01 3.344872e-01 3.487881e-01 3.235228e-01 3.185892e-01 3.304144e-01 2.195889e-01 1.914503e-01 1.248475e-01 2.522461e-01 5.541532e-03 1.051988e-02 1.806562e-02 1.417047e-02 2.408997e-02 1.950043e-02 2.336971e-02 2.293757e-02 1.856601e-02 1.827581e-02 1.199630e-02 1.222832e-02 7.549521e-03 1.378088e-03 1.839140e-03 3.146293e-03 3.390153e-03 3.151908e-03 4.051346e-03 3.945701e-03 4.279201e-03 3.820049e-03 2.831751e-03 2.813466e-03 1.891440e-03 1.647346e-03
<GCONST> -7.773259e+01
<MIXTURE> 3 8.307262e-02
<MEAN> 39
 9.712885e-01 1.351103e-01 -1.576434e+00 -2.569484e-01 6.206179e-01 4.115703e-03 -1.301742e-01 -1.824730e-01 2.281630e-01 2.603442e-01 1.592956e-01 -1.660389e-01 4.637642e-01 1.035708e-02 2.110521e-02 1.492048e-03 -7.583199e-03 -1.319905e-02 2.075061e-02 7.585274e-03 -1.632839e-02 -1.381551e-02 3.738570e-03 1.593822e-02 2.383385e-03 -2.448727e-02 -4.973795e-03 -1.046914e-02 1.561343e-02 1.357850e-02 1.196262e-03 -8.715439e-03 -1.141808e-02 1.384848e-02 7.921084e-03 -6.221701e-03 -1.120849e-02 -1.194801e-03 -6.818518e-04
<VARIANCE> 39
 1.046695e-01 2.109569e-01 3.806664e-01 4.765682e-01 3.457721e-01 3.290132e-01 2.588310e-01 2.353704e-01 2.600803e-01 2.301298e-01 1.966645e-01 1.317790e-01 2.242922e-01 2.244530e-03 4.354990e-03 5.919978e-03 6.680652e-03 6.817495e-03 7.647464e-03 8.349879e-03 8.173833e-03 8.549907e-03 6.735831e-03 6.382782e-03 4.998045e-03 2.713816e-03 4.067043e-04 6.876317e-04 1.088278e-03 1.212017e-03 1.190192e-03 1.337611e-03 1.366800e-03 1.562983e-03 1.456455e-03 1.260705e-03 1.098527e-03 8.710158e-04 4.638702e-04
<GCONST> -1.037089e+02
<MIXTURE> 4 7.268570e-02
<MEAN> 39
 7.194834e-01 -1.176277e+00 -1.183836e-01 2.361714e-01 -6.285751e-01 2.315361e-01 4.426384e-02 3.682109e-01 6.330848e-01 -7.666530e-01 4.587113e-02 3.491010e-01 9.451868e-01 -2.194475e-02 -9.421396e-03 3.563479e-02 -4.515640e-03 -5.144437e-02 4.112374e-02 4.611079e-02 -2.101975e-02 -3.614375e-02 -1.137943e-02 3.562648e-02 9.058221e-04 7.700869e-03 -4.641909e-03 4.233111e-02 -9.275029e-03 -6.626090e-03 3.545231e-02 -2.528956e-02 -4.675269e-03 -1.230222e-02 -4.009143e-02 6.570426e-02 2.474926e-03 -4.847791e-02 -2.090931e-02
<VARIANCE> 39
 1.092386e-01 2.502129e-01 2.544796e-01 2.800326e-01 5.082048e-01 3.684213e-01 4.129634e-01 3.075429e-01 4.011130e-01 2.269076e-01 2.702187e-01 1.103196e-01 2.165895e-01 7.902285e-03 1.067266e-02 1.836191e-02 2.559157e-02 5.637349e-02 2.016359e-02 3.886168e-02 2.887487e-02 2.955737e-02 2.594523e-02 2.317055e-02 1.540658e-02 6.247420e-03 8.826235e-04 1.346056e-03 1.771204e-03 2.398110e-03 3.507654e-03 3.023081e-03 3.853863e-03 3.225966e-03 3.520015e-03 2.942132e-03 3.240418e-03 1.747388e-03 8.778805e-04
<GCONST> -7.590401e+01
<MIXTURE> 5 8.836975e-02
<MEAN> 39
 6.873535e-01 -3.869281e-01 -1.433770e+00 4.662767e-02 8.616750e-01 -3.512497e-01 -2.746833e-01 4.454522e-01 4.712303e-01 -8.027880e-02 -3.500899e-01 -1.616636e-01 8.611525e-01 1.997749e-02 3.582516e-02 -1.230454e-02 -1.813741e-02 3.403728e-04 2.422272e-02 -1.112142e-02 -4.292057e-02 -7.158107e-04 4.228681e-02 2.014421e-02 -1.806444e-02 -3.360205e-02 -2.477446e-03 6.501937e-03 3.970698e-02 6.418056e-03 -3.200316e-02 5.842419e-03 1.549304e-02 -4.345105e-03 -2.850928e-02 -4.329161e-03 3.013155e-02 9.871949e-03 -1.671685e-02
<VARIANCE> 39
 9.735663e-02 1.632800e-01 3.485061e-01 2.970504e-01 2.676568e-01 3.788405e-01 2.440261e-01 3.009395e-01 2.747443e-01 2.361996e-01 1.490734e-01 1.317165e-01 2.401108e-01 4.022119e-03 7.534471e-03 1.385597e-02 1.104213e-02 1.218573e-02 1.327500e-02 1.278474e-02 1.771812e-02 1.285691e-02 1.531005e-02 9.561453e-03 8.959211e-03 5.152206e-03 7.055231e-04 1.001107e-03 1.812148e-03 1.607571e-03 1.856918e-03 1.852310e-03 2.386079e-03 2.141061e-03 2.261001e-03 1.796954e-03 1.490734e-03 1.302692e-03 1.014479e-03
<GCONST> -9.133535e+01
<MIXTURE> 6 7.308619e-02
<MEAN> 39
 7.021086e-01 -1.140125e+00 3.972594e-01 2.497960e-01 -1.594227e+00 6.050211e-01 3.993767e-01 -1.179010e-01 3.435768e-01 -1.014822e-01 1.471040e-01 -2.440630e-02 7.957444e-01 1.333335e-02 -4.466855e-03 6.867251e-03 2.645415e-02 -3.213396e-02 -7.399802e-03 2.568234e-02 -1.867763e-02 -3.170677e-03 1.669229e-02 -3.644836e-03 -8.801949e-04 -2.065533e-02 -5.825816e-03 1.562802e-02 1.903034e-03 -1.500105e-02 2.349603e-02 -3.525307e-03 -1.701595e-02 7.444938e-03 -8.850957e-04 -1.696551e-03 3.599243e-04 -2.621362e-03 -3.886887e-03
<VARIANCE> 39
 1.147192e-01 2.677962e-01 2.278281e-01 4.366942e-01 4.458970e-01 5.355726e-01 3.270795e-01 2.544234e-01 2.280199e-01 1.844525e-01 1.079107e-01 1.131306e-01 1.730095e-01 2.338681e-03 4.102734e-03 4.307857e-03 8.622136e-03 8.472970e-03 7.364681e-03 7.514477e-03 5.390940e-03 4.818646e-03 4.740594e-03 3.481604e-03 3.394429e-03 1.470279e-03 3.134842e-04 5.088550e-04 5.685121e-04 9.540204e-04 1.109487e-03 9.895888e-04 1.013299e-03 8.702669e-04 8.112731e-04 7.165654e-04 5.733769e-04 5.677757e-04 2.281567e-04
<GCONST> -1.128893e+02
<MIXTURE> 7 4.929467e-02
<MEAN> 39
 2.373559e-01 -5.175157e-01 -1.658236e-01 5.275179e-02 -6.892339e-01 -2.913435e-02 8.728027e-01 -1.838002e-01 -3.532726e-01 3.761240e-01 -4.182188e-02 -1.623347e-01 1.018317e+00 -1.225140e-01 1.273677e-01 2.385388e-01 -3.364381e-01 -5.479412e-02 3.047527e-01 -9.740976e-02 -2.323477e-01 1.667371e-01 8.486510e-02 -1.273994e-01 1.225285e-02 2.929779e-02 2.379000e-02 6.500543e-02 -2.735259e-02 -3.193865e-02 1.055270e-01 -2.696608e-02 -1.429863e-01 6.285999e-02 8.083110e-02 -6.946495e-02 -4.899145e-03 3.575149e-02 -5.152834e-02
<VARIANCE> 39
 1.199531e-01 2.581304e-01 2.889779e-01 3.583385e-01 3.275583e-01 3.865816e-01 3.417250e-01 3.691333e-01 2.725023e-01 2.155706e-01 1.905730e-01 1.468517e-01 2.152171e-01 6.307772e-03 1.143672e-02 1.365171e-02 1.935804e-02 2.144730e-02 1.872559e-02 2.885861e-02 2.254088e-02 2.184024e-02 2.023080e-02 1.367426e-02 1.227680e-02 7.474188e-03 1.331866e-03 1.826716e-03 3.247787e-03 5.001577e-03 4.672296e-03 5.808943e-03 4.780940e-03 6.193511e-03 4.337122e-03 3.170415e-03 3.378161e-03 2.581836e-03 1.610737e-03
<GCONST> -7.456655e+01
<MIXTURE> 8 1.815900e-02
<MEAN> 39
 -6.381041e-01 -1.083306e+00 -7.596536e-01 -7.309493e-01 -4.712902e-01 -5.571233e-01 -3.164155e-01 3.583299e-01 1.374002e+00 1.370288e+00 5.832208e-01 -5.222026e-01 9.918633e-01 8.840491e-03 1.271634e-02 1.140982e-02 -1.678658e-02 -7.009939e-03 -3.717191e-03 -7.212252e-03 7.307587e-03 3.028625e-02 4.845975e-03 -1.571162e-02 -1.808200e-02 -1.745552e-02 2.809109e-02 3.026396e-02 1.453242e-02 1.869301e-02 -5.405206e-03 -2.169606e-03 8.377416e-03 -1.609224e-02 -7.240675e-02 -7.262431e-02 -1.250666e-02 5.603415e-02 -3.509269e-02
<VARIANCE> 39
 1.694098e-01 4.853149e-01 3.177269e-01 7.914183e-01 4.720705e-01 4.493112e-01 6.704649e-01 1.031769e+00 8.169959e-01 8.066437e-01 1.286818e+00 6.845610e-01 2.663050e-01 1.368952e-02 2.463453e-02 2.019801e-02 3.514071e-02 2.907437e-02 3.359338e-02 4.580911e-02 7.276634e-02 9.113540e-02 7.372478e-02 7.736254e-02 8.586200e-02 1.200465e-02 1.760841e-03 3.404095e-03 3.526478e-03 5.967150e-03 5.311086e-03 5.783017e-03 7.262191e-03 1.062368e-02 1.118472e-02 1.269323e-02 1.445593e-02 9.560163e-03 2.511265e-03
<GCONST> -4.469558e+01
<MIXTURE> 9 7.663916e-02
<MEAN> 39
 9.369195e-01 -1.765033e-01 -1.251349e+00 8.243017e-02 5.751904e-01 -7.271393e-02 -4.738443e-01 5.575550e-02 4.389060e-01 1.906314e-01 -3.594332e-02 -3.222975e-01 4.530644e-01 -2.115324e-02 -4.297096e-02 1.033167e-02 5.287610e-02 -5.080774e-03 -3.528786e-02 4.187248e-04 5.424488e-02 1.778661e-02 -4.421258e-02 -3.437559e-02 1.437685e-02 2.269047e-02 -2.093149e-02 -1.570135e-02 3.798006e-02 1.783342e-02 -2.408741e-02 -2.486749e-02 3.398190e-02 2.883676e-02 -1.945952e-02 -3.558368e-02 -1.333207e-04 3.298411e-02 7.563927e-03
<VARIANCE> 39
 1.022338e-01 2.030445e-01 4.212116e-01 4.061258e-01 3.794879e-01 3.945173e-01 2.688690e-01 3.161581e-01 2.826318e-01 2.654136e-01 1.556790e-01 1.108375e-01 2.225074e-01 3.662065e-03 8.188656e-03 1.292039e-02 1.257075e-02 1.228852e-02 1.595833e-02 1.368392e-02 1.612959e-02 1.321347e-02 1.339024e-02 1.041274e-02 8.347999e-03 5.398674e-03 7.633088e-04 1.396752e-03 2.027594e-03 2.191618e-03 2.572106e-03 2.482467e-03 2.673885e-03 2.976312e-03 2.537007e-03 2.351272e-03 1.838844e-03 1.355117e-03 1.058423e-03
<GCONST> -8.734861e+01
<MIXTURE> 10 5.002456e-02
<MEAN> 39
 5.438166e-01 -6.042090e-01 -1.031727e+00 3.637082e-01 3.961614e-01 -6.620822e-01 1.428936e-01 7.464852e-01 1.214079e-01 -4.639177e-01 -1.182052e-01 1.700744e-01 9.397177e-01 7.482818e-02 5.398327e-02 -1.591961e-01 -5.095498e-03 1.440348e-01 2.510086e-03 -1.709217e-01 -3.290856e-02 1.819496e-01 3.198266e-02 -1.126947e-01 -3.550049e-02 -5.986958e-02 -1.505303e-03 2.219179e-02 3.777533e-02 -3.320017e-02 -3.192428e-02 4.762708e-02 6.011630e-03 -6.142898e-02 -1.272776e-02 6.071558e-02 1.824716e-02 -3.893377e-02 -1.469808e-02
<VARIANCE> 39
 1.089391e-01 1.838102e-01 3.620310e-01 3.001598e-01 3.183236e-01 3.074637e-01 3.006901e-01 2.760334e-01 3.256829e-01 2.078021e-01 1.695122e-01 1.188340e-01 2.229466e-01 3.489890e-03 6.381794e-03 1.027947e-02 1.039369e-02 1.600232e-02 1.439443e-02 1.707398e-02 1.828543e-02 1.472301e-02 1.642636e-02 9.953507e-03 1.101798e-02 3.413002e-03 7.124901e-04 1.114479e-03 1.878977e-03 1.857418e-03 2.269501e-03 2.382836e-03 3.056806e-03 2.950819e-03 3.341438e-03 2.483944e-03 2.412219e-03 1.552405e-03 7.877359e-04
<GCONST> -8.849050e+01
<MIXTURE> 11 9.941186e-02
<MEAN> 39
 4.707972e-01 -9.533587e-01 5.997218e-01 -3.199730e-01 -1.180271e+00 1.099427e+00 -1.013580e-01 2.285059e-02 1.950113e-01 -1.649238e-01 2.204637e-01 -2.275743e-01 8.169172e-01 -1.718557e-02 4.133214e-02 2.293110e-02 -3.352231e-02 1.777492e-02 1.364393e-02 -2.454215e-02 -1.508647e-02 1.256523e-02 8.683753e-03 -1.319818e-02 -3.364470e-03 -2.180263e-02 -6.683233e-03 3.448787e-02 -1.081067e-02 -1.279831e-04 4.362616e-02 -4.588222e-02 1.903233e-03 1.032071e-02 -1.036552e-02 1.020473e-02 -1.079724e-02 9.318178e-03 -1.597236e-02
<VARIANCE> 39
 1.009492e-01 2.944649e-01 1.606925e-01 3.495630e-01 4.747743e-01 2.937514e-01 3.204139e-01 2.594644e-01 2.564555e-01 1.423616e-01 1.176911e-01 9.067520e-02 2.088197e-01 5.386347e-03 1.249923e-02 7.690058e-03 2.023712e-02 2.394617e-02 1.557152e-02 1.488578e-02 1.289436e-02 1.098104e-02 8.962722e-03 7.470883e-03 6.871740e-03 4.398007e-03 7.693409e-04 1.337542e-03 1.157823e-03 1.902841e-03 2.337188e-03 1.888766e-03 2.088506e-03 1.895537e-03 1.657853e-03 1.455240e-03 1.261807e-03 1.103714e-03 7.324202e-04
<GCONST> -9.316925e+01
<MIXTURE> 12 5.677979e-02
<MEAN> 39
 9.603030e-01 -1.096413e+00 -1.666934e-01 8.441429e-01 -1.301805e+00 -5.475574e-02 4.878811e-01 -2.978010e-02 4.189219e-01 3.471479e-02 -1.385996e-01 8.436661e-02 6.188560e-01 4.085778e-02 -6.705761e-03 -3.659251e-02 9.114495e-02 -2.519389e-02 -8.829764e-02 4.552118e-02 1.667933e-02 -4.628927e-02 5.046356e-02 -2.259302e-03 -2.408616e-02 -3.881231e-02 -2.105965e-02 2.710828e-02 1.930084e-02 -3.997182e-02 3.755491e-02 1.381483e-02 -2.790409e-02 3.211389e-03 -1.164787e-03 -1.148872e-02 1.622973e-02 -4.810162e-03 -4.455874e-03
<VARIANCE> 39
 1.049299e-01 2.494973e-01 3.690414e-01 3.017004e-01 5.269076e-01 4.745783e-01 3.198623e-01 2.660163e-01 2.705486e-01 2.318017e-01 1.791842e-01 1.194730e-01 2.070243e-01 3.574119e-03 8.464015e-03 1.101949e-02 1.285319e-02 2.254816e-02 1.621516e-02 1.875442e-02 1.356202e-02 1.265175e-02 1.054530e-02 8.710939e-03 6.576709e-03 4.244926e-03 8.068602e-04 1.366059e-03 1.550313e-03 2.053695e-03 3.157453e-03 2.838537e-03 2.701113e-03 2.350991e-03 2.186477e-03 1.812233e-03 1.683829e-03 1.382509e-03 9.590658e-04
<GCONST> -8.813318e+01
<MIXTURE> 13 5.151556e-02
<MEAN> 39
 3.111964e-01 -7.405862e-01 -3.093987e-01 2.263489e-01 -3.550088e-01 -1.298132e-01 6.755201e-01 3.851876e-01 -5.530208e-01 -1.195238e-01 3.751813e-01 -1.740449e-01 1.056785e+00 -8.291176e-02 4.529918e-02 1.916658e-01 -1.535598e-01 -1.617320e-01 2.032592e-01 8.701650e-02 -2.319724e-01 -1.672685e-02 1.848208e-01 -3.231823e-02 -1.018054e-01 2.365742e-02 1.568500e-02 4.509016e-02 -5.943327e-03 -3.837003e-02 4.375456e-02 1.091482e-02 -8.792882e-02 -1.932227e-02 9.600029e-02 7.223336e-03 -6.809806e-02 1.905708e-02 -3.104502e-02
<VARIANCE> 39
 1.138532e-01 2.675925e-01 3.156770e-01 3.694956e-01 3.712411e-01 3.661589e-01 3.237430e-01 3.391098e-01 2.781029e-01 2.324076e-01 1.599420e-01 1.281309e-01 2.399042e-01 3.747124e-03 7.855156e-03 9.478377e-03 1.144755e-02 1.545640e-02 1.709687e-02 1.631009e-02 1.607018e-02 1.763643e-02 1.287062e-02 1.339712e-02 7.957701e-03 3.755309e-03 7.579900e-04 1.333652e-03 1.920054e-03 2.871769e-03 2.995705e-03 3.065317e-03 3.453837e-03 3.296457e-03 2.979793e-03 2.771280e-03 1.860067e-03 1.855443e-03 8.469701e-04
<GCONST> -8.563976e+01
<MIXTURE> 14 6.461839e-02
<MEAN> 39
 5.181684e-01 -5.872058e-01 -5.928804e-01 4.752762e-01 -2.618104e-01 -7.652551e-01 5.499134e-01 6.967904e-01 -3.489933e-01 -2.225404e-01 2.275685e-01 8.945511e-02 8.791747e-01 -1.337370e-01 -1.607355e-02 2.319217e-01 -1.244380e-01 -2.354155e-01 1.666066e-01 2.452362e-01 -1.641052e-01 -1.715048e-01 1.309665e-01 5.969100e-02 -6.305885e-02 9.038542e-02 -6.644277e-03 6.299217e-02 3.528847e-02 -8.193994e-02 3.204444e-02 9.835300e-02 -8.115631e-02 -1.030006e-01 7.267273e-02 5.512368e-02 -4.753719e-02 -2.318084e-02 -4.186245e-02
<VARIANCE> 39
 1.211437e-01 2.390102e-01 3.682852e-01 3.405695e-01 3.301376e-01 3.454031e-01 3.904618e-01 3.466420e-01 2.735851e-01 2.451560e-01 1.833617e-01 1.419765e-01 2.420807e-01 7.796857e-03 1.369184e-02 2.255977e-02 1.988555e-02 2.398397e-02 2.357597e-02 2.550406e-02 2.465676e-02 2.259452e-02 1.643519e-02 1.678055e-02 1.278638e-02 1.266151e-02 2.122965e-03 2.287019e-03 4.105593e-03 4.963112e-03 4.371160e-03 4.926354e-03 5.485333e-03 4.951670e-03 4.047999e-03 3.977702e-03 2.769875e-03 2.534705e-03 2.316996e-03
<GCONST> -7.156611e+01
<MIXTURE> 15 4.513859e-02
<MEAN> 39
 3.818385e-01 -9.957357e-01 -2.191995e-02 -2.389110e-01 -3.098788e-01 4.460682e-01 -8.569400e-02 5.178663e-01 -1.884793e-01 -3.839041e-01 4.234388e-01 -2.415769e-01 1.067737e+00 -6.790582e-02 1.098256e-01 -8.046504e-02 -5.578591e-02 2.061841e-01 -1.333158e-01 4.001976e-02 2.055390e-02 -1.505156e-01 1.286162e-01 -3.321956e-02 -4.146660e-02 1.350753e-02 2.102404e-02 2.029699e-02 -1.427670e-02 4.351983e-02 -2.049619e-02 -3.924951e-02 2.739004e-02 -4.105024e-02 3.584368e-02 3.026131e-02 -5.088710e-02 3.323958e-02 -2.739575e-02
<VARIANCE> 39
 1.464816e-01 2.952403e-01 3.478437e-01 3.500668e-01 5.467809e-01 5.150952e-01 4.230140e-01 3.732157e-01 4.004975e-01 3.133062e-01 1.713415e-01 1.375048e-01 2.149279e-01 5.508983e-03 9.855838e-03 1.633670e-02 1.814325e-02 2.491865e-02 2.463744e-02 2.272872e-02 2.442067e-02 2.236504e-02 1.899820e-02 1.974195e-02 1.770155e-02 4.495909e-03 8.188534e-04 1.417196e-03 1.976357e-03 2.466633e-03 3.982759e-03 3.604574e-03 3.851873e-03 3.661962e-03 4.088502e-03 4.277820e-03 2.588196e-03 2.240293e-03 8.137478e-04
<GCONST> -7.635194e+01
<MIXTURE> 16 3.203839e-02
<MEAN> 39
 -3.502388e-01 -8.064673e-01 -6.909668e-01 -4.221901e-01 -4.192885e-01 -6.391238e-01 -6.288575e-01 -6.931732e-01 -2.372068e-01 7.323500e-02 6.079898e-01 8.212845e-01 9.510960e-01 1.745955e-03 -5.883147e-03 -3.738471e-03 -3.071046e-04 -1.136318e-02 -4.026007e-03 1.858484e-03 1.696723e-03 1.102280e-02 5.835056e-03 9.265457e-03 9.031835e-03 -1.043735e-02 1.306060e-02 9.583896e-03 1.041922e-02 -3.357291e-03 -3.823257e-04 8.141668e-03 5.644717e-03 9.752680e-03 1.088753e-02 1.657288e-03 -1.085553e-02 -2.335291e-02 -8.689813e-03
<VARIANCE> 39
 2.195121e-01 6.963259e-01 5.216069e-01 9.240857e-01 5.615716e-01 6.043696e-01 5.709362e-01 4.920807e-01 7.372107e-01 8.231030e-01 7.081385e-01 4.666089e-01 3.256198e-01 4.653037e-03 1.065952e-02 1.267224e-02 1.798769e-02 1.791294e-02 2.143301e-02 2.304302e-02 2.373500e-02 2.928573e-02 3.283955e-02 3.274943e-02 2.973554e-02 3.423003e-03 7.895274e-04 1.574847e-03 2.139584e-03 2.848238e-03 3.183434e-03 3.563720e-03 3.951921e-03 4.058982e-03 4.771071e-03 5.234860e-03 5.472333e-03 4.338570e-03 6.300674e-04
<GCONST> -6.589104e+01
<STATE> 4
<NUMMIXES> 16
<MIXTURE> 1 5.450508e-02
<MEAN> 39
 1.056021e+00 -1.050845e+00 -4.146191e-01 1.042530e+00 -1.134648e+00 -4.810316e-01 5.291126e-01 9.874600e-02 3.676583e-01 1.872045e-01 -1.557278e-01 2.884039e-02 5.869991e-01 -4.499214e-02 6.011317e-03 7.135424e-02 -4.128551e-02 -4.469429e-02 4.890363e-02 2.938756e-02 -1.478215e-02 -6.191679e-03 -3.198923e-02 2.372320e-02 2.599751e-02 1.347671e-02 -1.918253e-02 1.755858e-02 2.398613e-02 -4.081488e-02 2.085707e-02 3.863147e-02 -2.257540e-02 -1.640972e-02 8.546764e-03 -1.079245e-02 8.320651e-03 2.494318e-03 -5.984124e-04
<VARIANCE> 39
 1.099587e-01 2.244273e-01 4.111066e-01 3.386101e-01 5.415986e-01 4.563041e-01 3.119885e-01 2.716153e-01 2.458816e-01 2.339022e-01 1.892836e-01 1.314854e-01 2.087714e-01 3.099133e-03 6.521946e-03 9.452962e-03 1.240044e-02 1.795082e-02 1.991778e-02 1.507131e-02 1.400096e-02 1.270592e-02 1.065044e-02 8.811899e-03 6.970709e-03 4.021059e-03 6.354680e-04 1.019052e-03 1.544789e-03 2.070932e-03 2.782996e-03 2.486770e-03 2.477543e-03 2.225248e-03 1.901566e-03 1.798215e-03 1.577153e-03 1.279416e-03 5.925092e-04
<GCONST> -9.038303e+01
<MIXTURE> 2 8.466648e-02
<MEAN> 39
 6.170634e-01 -6.069500e-01 -8.887316e-01 4.288442e-01 2.918234e-01 -6.829425e-01 -1.138657e-02 8.298629e-01 1.338014e-01 -4.951766e-01 -3.720341e-02 1.646572e-01 8.557556e-01 -1.023150e-01 -7.746100e-02 1.669573e-01 2.819939e-02 -2.000917e-01 -2.639543e-03 2.455601e-01 4.568689e-02 -2.164299e-01 -5.222580e-02 1.267828e-01 3.894639e-02 8.364537e-02 -9.613941e-03 4.053695e-02 5.083629e-02 -5.417274e-02 -3.361847e-02 7.535040e-02 1.631671e-02 -1.010642e-01 -2.186361e-02 8.363978e-02 1.570741e-02 -4.371839e-02 -2.494828e-02
<VARIANCE> 39
 1.127213e-01 2.149733e-01 3.900295e-01 3.336226e-01 3.344872e-01 3.487881e-01 3.235228e-01 3.185892e-01 3.304144e-01 2.195889e-01 1.914503e-01 1.248475e-01 2.522461e-01 5.541532e-03 1.051988e-02 1.806562e-02 1.417047e-02 2.408997e-02 1.950043e-02 2.336971e-02 2.293757e-02 1.856601e-02 1.827581e-02 1.199630e-02 1.222832e-02 7.549521e-03 1.378088e-03 1.839140e-03 3.146293e-03 3.390153e-03 3.151908e-03 4.051346e-03 3.945701e-03 4.279201e-03 3.820049e-03 2.831751e-03 2.813466e-03 1.891440e-03 1.647346e-03
<GCONST> -7.773259e+01
<MIXTURE> 3 8.307262e-02
<MEAN> 39
 9.712885e-01 1.351103e-01 -1.576434e+00 -2.569484e-01 6.206179e-01 4.115703e-03 -1.301742e-01 -1.824730e-01 2.281630e-01 2.603442e-01 1.592956e-01 -1.660389e-01 4.637642e-01 1.035708e-02 2.110521e-02 1.492048e-03 -7.583199e-03 -1.319905e-02 2.075061e-02 7.585274e-03 -1.632839e-02 -1.381551e-02 3.738570e-03 1.593822e-02 2.383385e-03 -2.448727e-02 -4.973795e-03 -1.046914e-02 1.561343e-02 1.357850e-02 1.196262e-03 -8.715439e-03 -1.141808e-02 1.384848e-02 7.921084e-03 -6.221701e-03 -1.120849e-02 -1.194801e-03 -6.818518e-04
<VARIANCE> 39
 1.046695e-01 2.109569e-01 3.806664e-01 4.765682e-01 3.457721e-01 3.290132e-01 2.588310e-01 2.353704e-01 2.600803e-01 2.301298e-01 1.966645e-01 1.317790e-01 2.242922e-01 2.244530e-03 4.354990e-03 5.919978e-03 6.680652e-03 6.817495e-03 7.647464e-03 8.349879e-03 8.173833e-03 8.549907e-03 6.735831e-03 6.382782e-03 4.998045e-03 2.713816e-03 4.067043e-04 6.876317e-04 1.088278e-03 1.212017e-03 1.190192e-03 1.337611e-03 1.366800e-03 1.562983e-03 1.456455e-03 1.260705e-03 1.098527e-03 8.710158e-04 4.638702e-04
<GCONST> -1.037089e+02
<MIXTURE> 4 7.268570e-02
<MEAN> 39
 7.194834e-01 -1.176277e+00 -1.183836e-01 2.361714e-01 -6.285751e-01 2.315361e-01 4.426384e-02 3.682109e-01 6.330848e-01 -7.666530e-01 4.587113e-02 3.491010e-01 9.451868e-01 -2.194475e-02 -9.421396e-03 3.563479e-02 -4.515640e-03 -5.144437e-02 4.112374e-02 4.611079e-02 -2.101975e-02 -3.614375e-02 -1.137943e-02 3.562648e-02 9.058221e-04 7.700869e-03 -4.641909e-03 4.233111e-02 -9.275029e-03 -6.626090e-03 3.545231e-02 -2.528956e-02 -4.675269e-03 -1.230222e-02 -4.009143e-02 6.570426e-02 2.474926e-03 -4.847791e-02 -2.090931e-02
<VARIANCE> 39
 1.092386e-01 2.502129e-01 2.544796e-01 2.800326e-01 5.082048e-01 3.684213e-01 4.129634e-01 3.075429e-01 4.011130e-01 2.269076e-01 2.702187e-01 1.103196e-01 2.165895e-01 7.902285e-03 1.067266e-02 1.836191e-02 2.559157e-02 5.637349e-02 2.016359e-02 3.886168e-02 2.887487e-02 2.955737e-02 2.594523e-02 2.317055e-02 1.540658e-02 6.247420e-03 8.826235e-04 1.346056e-03 1.771204e-03 2.398110e-03 3.507654e-03 3.023081e-03 3.853863e-03 3.225966e-03 3.520015e-03 2.942132e-03 3.240418e-03 1.747388e-03 8.778805e-04
<GCONST> -7.590401e+01
<MIXTURE> 5 8.836975e-02
<MEAN> 39
 6.873535e-01 -3.869281e-01 -1.433770e+00 4.662767e-02 8.616750e-01 -3.512497e-01 -2.746833e-01 4.454522e-01 4.712303e-01 -8.027880e-02 -3.500899e-01 -1.616636e-01 8.611525e-01 1.997749e-02 3.582516e-02 -1.230454e-02 -1.813741e-02 3.403728e-04 2.422272e-02 -1.112142e-02 -4.292057e-02 -7.158107e-04 4.228681e-02 2.014421e-02 -1.806444e-02 -3.360205e-02 -2.477446e-03 6.501937e-03 3.970698e-02 6.418056e-03 -3.200316e-02 5.842419e-03 1.549304e-02 -4.345105e-03 -2.850928e-02 -4.329161e-03 3.013155e-02 9.871949e-03 -1.671685e-02
<VARIANCE> 39
 9.735663e-02 1.632800e-01 3.485061e-01 2.970504e-01 2.676568e-01 3.788405e-01 2.440261e-01 3.009395e-01 2.747443e-01 2.361996e-01 1.490734e-01 1.317165e-01 2.401108e-01 4.022119e-03 7.534471e-03 1.385597e-02 1.104213e-02 1.218573e-02 1.327500e-02 1.278474e-02 1.771812e-02 1.285691e-02 1.531005e-02 9.561453e-03 8.959211e-03 5.152206e-03 7.055231e-04 1.001107e-03 1.812148e-03 1.607571e-03 1.856918e-03 1.852310e-03 2.386079e-03 2.141061e-03 2.261001e-03 1.796954e-03 1.490734e-03 1.302692e-03 1.014479e-03
<GCONST> -9.133535e+01
<MIXTURE> 6 7.308619e-02
<MEAN> 39
 7.021086e-01 -1.140125e+00 3.972594e-01 2.497960e-01 -1.594227e+00 6.050211e-01 3.993767e-01 -1.179010e-01 3.435768e-01 -1.014822e-01 1.471040e-01 -2.440630e-02 7.957444e-01 1.333335e-02 -4.466855e-03 6.867251e-03 2.645415e-02 -3.213396e-02 -7.399802e-03 2.568234e-02 -1.867763e-02 -3.170677e-03 1.669229e-02 -3.644836e-03 -8.801949e-04 -2.065533e-02 -5.825816e-03 1.562802e-02 1.903034e-03 -1.500105e-02 2.349603e-02 -3.525307e-03 -1.701595e-02 7.444938e-03 -8.850957e-04 -1.696551e-03 3.599243e-04 -2.621362e-03 -3.886887e-03
<VARIANCE> 39
 1.147192e-01 2.677962e-01 2.278281e-01 4.366942e-01 4.458970e-01 5.355726e-01 3.270795e-01 2.544234e-01 2.280199e-01 1.844525e-01 1.079107e-01 1.131306e-01 1.730095e-01 2.338681e-03 4.102734e-03 4.307857e-03 8.622136e-03 8.472970e-03 7.364681e-03 7.514477e-03 5.390940e-03 4.818646e-03 4.740594e-03 3.481604e-03 3.394429e-03 1.470279e-03 3.134842e-04 5.088550e-04 5.685121e-04 9.540204e-04 1.109487e-03 9.895888e-04 1.013299e-03 8.702669e-04 8.112731e-04 7.165654e-04 5.733769e-04 5.677757e-04 2.281567e-04
<GCONST> -1.128893e+02
<MIXTURE> 7 4.929467e-02
<MEAN> 39
 2.373559e-01 -5.175157e-01 -1.658236e-01 5.275179e-02 -6.892339e-01 -2.913435e-02 8.728027e-01 -1.838002e-01 -3.532726e-01 3.761240e-01 -4.182188e-02 -1.623347e-01 1.018317e+00 -1.225140e-01 1.273677e-01 2.385388e-01 -3.364381e-01 -5.479412e-02 3.047527e-01 -9.740976e-02 -2.323477e-01 1.667371e-01 8.486510e-02 -1.273994e-01 1.225285e-02 2.929779e-02 2.379000e-02 6.500543e-02 -2.735259e-02 -3.193865e-02 1.055270e-01 -2.696608e-02 -1.429863e-01 6.285999e-02 8.083110e-02 -6.946495e-02 -4.899145e-03 3.575149e-02 -5.152834e-02
<VARIANCE> 39
 1.199531e-01 2.581304e-01 2.889779e-01 3.583385e-01 3.275583e-01 3.865816e-01 3.417250e-01 3.691333e-01 2.725023e-01 2.155706e-01 1.905730e-01 1.468517e-01 2.152171e-01 6.307772e-03 1.143672e-02 1.365171e-02 1.935804e-02 2.144730e-02 1.872559e-02 2.885861e-02 2.254088e-02 2.184024e-02 2.023080e-02 1.367426e-02 1.227680e-02 7.474188e-03 1.331866e-03 1.826716e-03 3.247787e-03 5.001577e-03 4.672296e-03 5.808943e-03 4.780940e-03 6.193511e-03 4.337122e-03 3.170415e-03 3.378161e-03 2.581836e-03 1.610737e-03
<GCONST> -7.456655e+01
<MIXTURE> 8 1.815900e-02
<MEAN> 39
 -6.381041e-01 -1.083306e+00 -7.596536e-01 -7.309493e-01 -4.712902e-01 -5.571233e-01 -3.164155e-01 3.583299e-01 1.374002e+00 1.370288e+00 5.832208e-01 -5.222026e-01 9.918633e-01 8.840491e-03 1.271634e-02 1.140982e-02 -1.678658e-02 -7.009939e-03 -3.717191e-03 -7.212252e-03 7.307587e-03 3.028625e-02 4.845975e-03 -1.571162e-02 -1.808200e-02 -1.745552e-02 2.809109e-02 3.026396e-02 1.453242e-02 1.869301e-02 -5.405206e-03 -2.169606e-03 8.377416e-03 -1.609224e-02 -7.240675e-02 -7.262431e-02 -1.250666e-02 5.603415e-02 -3.509269e-02
<VARIANCE> 39
 1.694098e-01 4.853149e-01 3.177269e-01 7.914183e-01 4.720705e-01 4.493112e-01 6.704649e-01 1.031769e+00 8.169959e-01 8.066437e-01 1.286818e+00 6.845610e-01 2.663050e-01 1.368952e-02 2.463453e-02 2.019801e-02 3.514071e-02 2.907437e-02 3.359338e-02 4.580911e-02 7.276634e-02 9.113540e-02 7.372478e-02 7.736254e-02 8.586200e-02 1.200465e-02 1.760841e-03 3.404095e-03 3.526478e-03 5.967150e-03 5.311086e-03 5.783017e-03 7.262191e-03 1.062368e-02 1.118472e-02 1.269323e-02 1.445593e-02 9.560163e-03 2.511265e-03
<GCONST> -4.469558e+01
<MIXTURE> 9 7.663916e-02
<MEAN> 39
 9.369195e-01 -1.765033e-01 -1.251349e+00 8.243017e-02 5.751904e-01 -7.271393e-02 -4.738443e-01 5.575550e-02 4.389060e-01 1.906314e-01 -3.594332e-02 -3.222975e-01 4.530644e-01 -2.115324e-02 -4.297096e-02 1.033167e-02 5.287610e-02 -5.080774e-03 -3.528786e-02 4.187248e-04 5.424488e-02 1.778661e-02 -4.421258e-02 -3.437559e-02 1.437685e-02 2.269047e-02 -2.093149e-02 -1.570135e-02 3.798006e-02 1.783342e-02 -2.408741e-02 -2.486749e-02 3.398190e-02 2.883676e-02 -1.945952e-02 -3.558368e-02 -1.333207e-04 3.298411e-02 7.563927e-03
<VARIANCE> 39
 1.022338e-01 2.030445e-01 4.212116e-01 4.061258e-01 3.794879e-01 3.945173e-01 2.688690e-01 3.161581e-01 2.826318e-01 2.654136e-01 1.556790e-01 1.108375e-01 2.225074e-01 3.662065e-03 8.188656e-03 1.292039e-02 1.257075e-02 1.228852e-02 1.595833e-02 1.368392e-02 1.612959e-02 1.321347e-02 1.339024e-02 1.041274e-02 8.347999e-03 5.398674e-03 7.633088e-04 1.396752e-03 2.027594e-03 2.191618e-03 2.572106e-03 2.482467e-03 2.673885e-03 2.976312e-03 2.537007e-03 2.351272e-03 1.838844e-03 1.355117e-03 1.058423e-03
<GCONST> -8.734861e+01
<MIXTURE> 10 5.002456e-02
<MEAN> 39
 5.438166e-01 -6.042090e-01 -1.031727e+00 3.637082e-01 3.961614e-01 -6.620822e-01 1.428936e-01 7.464852e-01 1.214079e-01 -4.639177e-01 -1.182052e-01 1.700744e-01 9.397177e-01 7.482818e-02 5.398327e-02 -1.591961e-01 -5.095498e-03 1.440348e-01 2.510086e-03 -1.709217e-01 -3.290856e-02 1.819496e-01 3.198266e-02 -1.126947e-01 -3.550049e-02 -5.986958e-02 -1.505303e-03 2.219179e-02 3.777533e-02 -3.320017e-02 -3.192428e-02 4.762708e-02 6.011630e-03 -6.142898e-02 -1.272776e-02 6.071558e-02 1.824716e-02 -3.893377e-02 -1.469808e-02
<VARIANCE> 39
